<neuralNetwork>
    <neuron name = "0" type = "sensor" linkName = "RightFoot" />
    <neuron name = "1" type = "sensor" linkName = "LeftFoot" />
    <neuron name = "2" type = "sensor" linkName = "LowerRightArm" />
    <neuron name = "3" type = "sensor" linkName = "LowerLeftArm" />
    <neuron name = "4" type = "sensor" linkName = "LowerRightLeg" />
    <neuron name = "5" type = "sensor" linkName = "LowerLeftLeg" />
    <neuron name = "6" type = "motor"  jointName = "Torso_UpperRightLeg" />
    <neuron name = "7" type = "motor"  jointName = "UpperRightLeg_LowerRightLeg" />
    <neuron name = "8" type = "motor"  jointName = "LowerRightLeg_RightFoot" />
    <neuron name = "9" type = "motor"  jointName = "Torso_UpperLeftLeg" />
    <neuron name = "10" type = "motor"  jointName = "UpperLeftLeg_LowerLeftLeg" />
    <neuron name = "11" type = "motor"  jointName = "LowerLeftLeg_LeftFoot" />
    <neuron name = "12" type = "motor"  jointName = "Torso_UpperRightArm" />
    <neuron name = "13" type = "motor"  jointName = "UpperRightArm_LowerRightArm" />
    <neuron name = "14" type = "motor"  jointName = "Torso_UpperLeftArm" />
    <neuron name = "15" type = "motor"  jointName = "UpperLeftArm_LowerLeftArm" />
    <synapse sourceNeuronName = "0" targetNeuronName = "6" weight = "0.21938037543155287" />
    <synapse sourceNeuronName = "0" targetNeuronName = "7" weight = "0.7246774338113393" />
    <synapse sourceNeuronName = "0" targetNeuronName = "8" weight = "-0.08469117541797822" />
    <synapse sourceNeuronName = "0" targetNeuronName = "9" weight = "0.4404318552447657" />
    <synapse sourceNeuronName = "0" targetNeuronName = "10" weight = "-0.882612099322065" />
    <synapse sourceNeuronName = "0" targetNeuronName = "11" weight = "-0.4320529701634914" />
    <synapse sourceNeuronName = "0" targetNeuronName = "12" weight = "0.904544252046767" />
    <synapse sourceNeuronName = "0" targetNeuronName = "13" weight = "0.2844465487809249" />
    <synapse sourceNeuronName = "0" targetNeuronName = "14" weight = "-0.9811642551109183" />
    <synapse sourceNeuronName = "0" targetNeuronName = "15" weight = "0.22618684744815476" />
    <synapse sourceNeuronName = "1" targetNeuronName = "6" weight = "0.8495420070060324" />
    <synapse sourceNeuronName = "1" targetNeuronName = "7" weight = "-0.3083496866769402" />
    <synapse sourceNeuronName = "1" targetNeuronName = "8" weight = "0.7072710280982988" />
    <synapse sourceNeuronName = "1" targetNeuronName = "9" weight = "0.7037018177057723" />
    <synapse sourceNeuronName = "1" targetNeuronName = "10" weight = "-0.6599060288524943" />
    <synapse sourceNeuronName = "1" targetNeuronName = "11" weight = "0.9731884433979481" />
    <synapse sourceNeuronName = "1" targetNeuronName = "12" weight = "-0.8478999335292972" />
    <synapse sourceNeuronName = "1" targetNeuronName = "13" weight = "0.9816373016955928" />
    <synapse sourceNeuronName = "1" targetNeuronName = "14" weight = "-0.23149384696461195" />
    <synapse sourceNeuronName = "1" targetNeuronName = "15" weight = "-0.30331112883039246" />
    <synapse sourceNeuronName = "2" targetNeuronName = "6" weight = "-0.3402408107768784" />
    <synapse sourceNeuronName = "2" targetNeuronName = "7" weight = "0.7557901149148356" />
    <synapse sourceNeuronName = "2" targetNeuronName = "8" weight = "0.5328086561344749" />
    <synapse sourceNeuronName = "2" targetNeuronName = "9" weight = "0.767677763405705" />
    <synapse sourceNeuronName = "2" targetNeuronName = "10" weight = "0.5544951104207563" />
    <synapse sourceNeuronName = "2" targetNeuronName = "11" weight = "-0.09219138359641432" />
    <synapse sourceNeuronName = "2" targetNeuronName = "12" weight = "-0.6827948370587718" />
    <synapse sourceNeuronName = "2" targetNeuronName = "13" weight = "-0.22784589153305568" />
    <synapse sourceNeuronName = "2" targetNeuronName = "14" weight = "0.8506508795766139" />
    <synapse sourceNeuronName = "2" targetNeuronName = "15" weight = "-0.8020893957142405" />
    <synapse sourceNeuronName = "3" targetNeuronName = "6" weight = "0.9795500552146059" />
    <synapse sourceNeuronName = "3" targetNeuronName = "7" weight = "-0.3453662094036516" />
    <synapse sourceNeuronName = "3" targetNeuronName = "8" weight = "-0.7397226158499466" />
    <synapse sourceNeuronName = "3" targetNeuronName = "9" weight = "0.999438648940034" />
    <synapse sourceNeuronName = "3" targetNeuronName = "10" weight = "0.2092050832826824" />
    <synapse sourceNeuronName = "3" targetNeuronName = "11" weight = "-0.8255646238487395" />
    <synapse sourceNeuronName = "3" targetNeuronName = "12" weight = "0.43256498280579736" />
    <synapse sourceNeuronName = "3" targetNeuronName = "13" weight = "-0.5341822794373465" />
    <synapse sourceNeuronName = "3" targetNeuronName = "14" weight = "0.2537887162799546" />
    <synapse sourceNeuronName = "3" targetNeuronName = "15" weight = "0.20089474321880707" />
    <synapse sourceNeuronName = "4" targetNeuronName = "6" weight = "0.37254554584282196" />
    <synapse sourceNeuronName = "4" targetNeuronName = "7" weight = "0.6409336951042661" />
    <synapse sourceNeuronName = "4" targetNeuronName = "8" weight = "0.36790617276099513" />
    <synapse sourceNeuronName = "4" targetNeuronName = "9" weight = "0.1469852967484908" />
    <synapse sourceNeuronName = "4" targetNeuronName = "10" weight = "0.15190056171539323" />
    <synapse sourceNeuronName = "4" targetNeuronName = "11" weight = "-0.9572813533487603" />
    <synapse sourceNeuronName = "4" targetNeuronName = "12" weight = "0.23867881393838486" />
    <synapse sourceNeuronName = "4" targetNeuronName = "13" weight = "-0.8372534549243011" />
    <synapse sourceNeuronName = "4" targetNeuronName = "14" weight = "-0.3644463983433224" />
    <synapse sourceNeuronName = "4" targetNeuronName = "15" weight = "0.30018712204914166" />
    <synapse sourceNeuronName = "5" targetNeuronName = "6" weight = "0.8043187735900161" />
    <synapse sourceNeuronName = "5" targetNeuronName = "7" weight = "0.732374912261053" />
    <synapse sourceNeuronName = "5" targetNeuronName = "8" weight = "-0.44948021587682296" />
    <synapse sourceNeuronName = "5" targetNeuronName = "9" weight = "0.242915069941539" />
    <synapse sourceNeuronName = "5" targetNeuronName = "10" weight = "-0.4909169033294922" />
    <synapse sourceNeuronName = "5" targetNeuronName = "11" weight = "-0.39731891211935544" />
    <synapse sourceNeuronName = "5" targetNeuronName = "12" weight = "-0.26900934115458663" />
    <synapse sourceNeuronName = "5" targetNeuronName = "13" weight = "0.9235144227397412" />
    <synapse sourceNeuronName = "5" targetNeuronName = "14" weight = "-0.23817085923398418" />
    <synapse sourceNeuronName = "5" targetNeuronName = "15" weight = "0.8480545932662626" />
</neuralNetwork>