<neuralNetwork>
    <neuron name = "0" type = "sensor" linkName = "RightFoot" />
    <neuron name = "1" type = "sensor" linkName = "LeftFoot" />
    <neuron name = "2" type = "sensor" linkName = "LowerRightArm" />
    <neuron name = "3" type = "sensor" linkName = "LowerLeftArm" />
    <neuron name = "4" type = "sensor" linkName = "LowerRightLeg" />
    <neuron name = "5" type = "sensor" linkName = "LowerLeftLeg" />
    <neuron name = "6" type = "motor"  jointName = "Torso_UpperRightLeg" />
    <neuron name = "7" type = "motor"  jointName = "UpperRightLeg_LowerRightLeg" />
    <neuron name = "8" type = "motor"  jointName = "LowerRightLeg_RightFoot" />
    <neuron name = "9" type = "motor"  jointName = "Torso_UpperLeftLeg" />
    <neuron name = "10" type = "motor"  jointName = "UpperLeftLeg_LowerLeftLeg" />
    <neuron name = "11" type = "motor"  jointName = "LowerLeftLeg_LeftFoot" />
    <neuron name = "12" type = "motor"  jointName = "Torso_UpperRightArm" />
    <neuron name = "13" type = "motor"  jointName = "UpperRightArm_LowerRightArm" />
    <neuron name = "14" type = "motor"  jointName = "Torso_UpperLeftArm" />
    <neuron name = "15" type = "motor"  jointName = "UpperLeftArm_LowerLeftArm" />
    <synapse sourceNeuronName = "0" targetNeuronName = "6" weight = "-0.9979780696834357" />
    <synapse sourceNeuronName = "0" targetNeuronName = "7" weight = "-0.9283579721793105" />
    <synapse sourceNeuronName = "0" targetNeuronName = "8" weight = "-0.9305574978095947" />
    <synapse sourceNeuronName = "0" targetNeuronName = "9" weight = "-0.8490971908394607" />
    <synapse sourceNeuronName = "0" targetNeuronName = "10" weight = "0.5994172416045447" />
    <synapse sourceNeuronName = "0" targetNeuronName = "11" weight = "0.7402681501381005" />
    <synapse sourceNeuronName = "0" targetNeuronName = "12" weight = "-0.25282560765793205" />
    <synapse sourceNeuronName = "0" targetNeuronName = "13" weight = "0.5574750890598994" />
    <synapse sourceNeuronName = "0" targetNeuronName = "14" weight = "0.827708069918462" />
    <synapse sourceNeuronName = "0" targetNeuronName = "15" weight = "0.336343197512583" />
    <synapse sourceNeuronName = "1" targetNeuronName = "6" weight = "0.9938851691803479" />
    <synapse sourceNeuronName = "1" targetNeuronName = "7" weight = "-0.13033973950040956" />
    <synapse sourceNeuronName = "1" targetNeuronName = "8" weight = "0.19308548410115534" />
    <synapse sourceNeuronName = "1" targetNeuronName = "9" weight = "0.06492722609360402" />
    <synapse sourceNeuronName = "1" targetNeuronName = "10" weight = "-0.31403923626579533" />
    <synapse sourceNeuronName = "1" targetNeuronName = "11" weight = "0.39043273910127274" />
    <synapse sourceNeuronName = "1" targetNeuronName = "12" weight = "-0.7168838087424976" />
    <synapse sourceNeuronName = "1" targetNeuronName = "13" weight = "-0.15270803077691775" />
    <synapse sourceNeuronName = "1" targetNeuronName = "14" weight = "-0.992923207076162" />
    <synapse sourceNeuronName = "1" targetNeuronName = "15" weight = "-0.7965191923664092" />
    <synapse sourceNeuronName = "2" targetNeuronName = "6" weight = "0.6707367226223329" />
    <synapse sourceNeuronName = "2" targetNeuronName = "7" weight = "0.3804529336769473" />
    <synapse sourceNeuronName = "2" targetNeuronName = "8" weight = "0.3417245622166436" />
    <synapse sourceNeuronName = "2" targetNeuronName = "9" weight = "-0.6653607309034197" />
    <synapse sourceNeuronName = "2" targetNeuronName = "10" weight = "0.5265084516027378" />
    <synapse sourceNeuronName = "2" targetNeuronName = "11" weight = "-0.5343684531446755" />
    <synapse sourceNeuronName = "2" targetNeuronName = "12" weight = "0.25304163861937523" />
    <synapse sourceNeuronName = "2" targetNeuronName = "13" weight = "0.19853407502321718" />
    <synapse sourceNeuronName = "2" targetNeuronName = "14" weight = "0.6622586821908574" />
    <synapse sourceNeuronName = "2" targetNeuronName = "15" weight = "-0.38192039581985826" />
    <synapse sourceNeuronName = "3" targetNeuronName = "6" weight = "-0.6214872487371892" />
    <synapse sourceNeuronName = "3" targetNeuronName = "7" weight = "0.515844447748877" />
    <synapse sourceNeuronName = "3" targetNeuronName = "8" weight = "0.4193694382687325" />
    <synapse sourceNeuronName = "3" targetNeuronName = "9" weight = "0.9319097391085445" />
    <synapse sourceNeuronName = "3" targetNeuronName = "10" weight = "-0.10345896649978092" />
    <synapse sourceNeuronName = "3" targetNeuronName = "11" weight = "-0.008368495465443715" />
    <synapse sourceNeuronName = "3" targetNeuronName = "12" weight = "0.8245027508777405" />
    <synapse sourceNeuronName = "3" targetNeuronName = "13" weight = "0.47317449006096557" />
    <synapse sourceNeuronName = "3" targetNeuronName = "14" weight = "0.3546603385621254" />
    <synapse sourceNeuronName = "3" targetNeuronName = "15" weight = "-0.16924821318159378" />
    <synapse sourceNeuronName = "4" targetNeuronName = "6" weight = "-0.6050187056561906" />
    <synapse sourceNeuronName = "4" targetNeuronName = "7" weight = "0.8356316978698948" />
    <synapse sourceNeuronName = "4" targetNeuronName = "8" weight = "-0.8447868627552477" />
    <synapse sourceNeuronName = "4" targetNeuronName = "9" weight = "-0.5790018563424453" />
    <synapse sourceNeuronName = "4" targetNeuronName = "10" weight = "-0.7544513159400239" />
    <synapse sourceNeuronName = "4" targetNeuronName = "11" weight = "0.10816020311192465" />
    <synapse sourceNeuronName = "4" targetNeuronName = "12" weight = "-0.4293282587183884" />
    <synapse sourceNeuronName = "4" targetNeuronName = "13" weight = "-0.7290652638589394" />
    <synapse sourceNeuronName = "4" targetNeuronName = "14" weight = "-0.4072558813268843" />
    <synapse sourceNeuronName = "4" targetNeuronName = "15" weight = "-0.9376237109393866" />
    <synapse sourceNeuronName = "5" targetNeuronName = "6" weight = "0.5504413245005655" />
    <synapse sourceNeuronName = "5" targetNeuronName = "7" weight = "-0.7882702901382235" />
    <synapse sourceNeuronName = "5" targetNeuronName = "8" weight = "-0.3779960909835878" />
    <synapse sourceNeuronName = "5" targetNeuronName = "9" weight = "-0.6663621248043479" />
    <synapse sourceNeuronName = "5" targetNeuronName = "10" weight = "0.9466037015946809" />
    <synapse sourceNeuronName = "5" targetNeuronName = "11" weight = "0.4787039395261832" />
    <synapse sourceNeuronName = "5" targetNeuronName = "12" weight = "-0.9392927438940919" />
    <synapse sourceNeuronName = "5" targetNeuronName = "13" weight = "0.5501886840339931" />
    <synapse sourceNeuronName = "5" targetNeuronName = "14" weight = "0.7060117433926025" />
    <synapse sourceNeuronName = "5" targetNeuronName = "15" weight = "-0.024282917393198433" />
</neuralNetwork>