<neuralNetwork>
    <neuron name = "0" type = "sensor" linkName = "Part0" />
    <neuron name = "1" type = "sensor" linkName = "Part1" />
    <neuron name = "2" type = "sensor" linkName = "Part2" />
    <neuron name = "3" type = "sensor" linkName = "Part7" />
    <neuron name = "4" type = "sensor" linkName = "Part8" />
    <neuron name = "5" type = "sensor" linkName = "Part9" />
    <neuron name = "6" type = "sensor" linkName = "Part10" />
    <neuron name = "7" type = "sensor" linkName = "Part11" />
    <neuron name = "8" type = "sensor" linkName = "Part12" />
    <neuron name = "9" type = "motor"  jointName = "Part0_Part1" />
    <neuron name = "10" type = "motor"  jointName = "Part0_Part2" />
    <neuron name = "11" type = "motor"  jointName = "Part1_Part3" />
    <neuron name = "12" type = "motor"  jointName = "Part2_Part4" />
    <neuron name = "13" type = "motor"  jointName = "Part2_Part5" />
    <neuron name = "14" type = "motor"  jointName = "Part1_Part6" />
    <neuron name = "15" type = "motor"  jointName = "Part3_Part7" />
    <neuron name = "16" type = "motor"  jointName = "Part4_Part8" />
    <neuron name = "17" type = "motor"  jointName = "Part5_Part9" />
    <neuron name = "18" type = "motor"  jointName = "Part6_Part10" />
    <neuron name = "19" type = "motor"  jointName = "Part4_Part11" />
    <neuron name = "20" type = "motor"  jointName = "Part3_Part12" />
    <neuron name = "21" type = "motor"  jointName = "Part5_Part13" />
    <neuron name = "22" type = "motor"  jointName = "Part6_Part14" />
    <neuron name = "23" type = "motor"  jointName = "Part14_Part15" />
    <neuron name = "24" type = "motor"  jointName = "Part13_Part16" />
    <synapse sourceNeuronName = "0" targetNeuronName = "9" weight = "-0.47198478212155215" />
    <synapse sourceNeuronName = "0" targetNeuronName = "10" weight = "0.46105224383087884" />
    <synapse sourceNeuronName = "0" targetNeuronName = "11" weight = "-0.8034189656728934" />
    <synapse sourceNeuronName = "0" targetNeuronName = "12" weight = "-0.48102679938144677" />
    <synapse sourceNeuronName = "0" targetNeuronName = "13" weight = "-0.8084562710092302" />
    <synapse sourceNeuronName = "0" targetNeuronName = "14" weight = "-1.1668982902924492" />
    <synapse sourceNeuronName = "0" targetNeuronName = "15" weight = "-1.3115051542505427" />
    <synapse sourceNeuronName = "0" targetNeuronName = "16" weight = "-1.5666874662412544" />
    <synapse sourceNeuronName = "0" targetNeuronName = "17" weight = "-0.9706092131147781" />
    <synapse sourceNeuronName = "0" targetNeuronName = "18" weight = "-0.34430027944776476" />
    <synapse sourceNeuronName = "0" targetNeuronName = "19" weight = "-1.3428845087075805" />
    <synapse sourceNeuronName = "0" targetNeuronName = "20" weight = "-0.4182903672036282" />
    <synapse sourceNeuronName = "0" targetNeuronName = "21" weight = "-1.1641171467403475" />
    <synapse sourceNeuronName = "0" targetNeuronName = "22" weight = "-1.3009994481134664" />
    <synapse sourceNeuronName = "0" targetNeuronName = "23" weight = "-1.1004696515087424" />
    <synapse sourceNeuronName = "0" targetNeuronName = "24" weight = "-1.6839244741758668" />
    <synapse sourceNeuronName = "1" targetNeuronName = "9" weight = "0.17239214070653208" />
    <synapse sourceNeuronName = "1" targetNeuronName = "10" weight = "0.12022447402888892" />
    <synapse sourceNeuronName = "1" targetNeuronName = "11" weight = "-0.456865087741553" />
    <synapse sourceNeuronName = "1" targetNeuronName = "12" weight = "0.3704810190535044" />
    <synapse sourceNeuronName = "1" targetNeuronName = "13" weight = "-0.862836854218668" />
    <synapse sourceNeuronName = "1" targetNeuronName = "14" weight = "-0.4783374116989181" />
    <synapse sourceNeuronName = "1" targetNeuronName = "15" weight = "-0.1707463825248423" />
    <synapse sourceNeuronName = "1" targetNeuronName = "16" weight = "-1.8644809821366002" />
    <synapse sourceNeuronName = "1" targetNeuronName = "17" weight = "-0.1445694322125557" />
    <synapse sourceNeuronName = "1" targetNeuronName = "18" weight = "-1.7838636938714298" />
    <synapse sourceNeuronName = "1" targetNeuronName = "19" weight = "-0.7577902422960012" />
    <synapse sourceNeuronName = "1" targetNeuronName = "20" weight = "-0.031272201394471955" />
    <synapse sourceNeuronName = "1" targetNeuronName = "21" weight = "-1.9030830438773734" />
    <synapse sourceNeuronName = "1" targetNeuronName = "22" weight = "0.14325412148789707" />
    <synapse sourceNeuronName = "1" targetNeuronName = "23" weight = "-1.8455128735451518" />
    <synapse sourceNeuronName = "1" targetNeuronName = "24" weight = "-0.4641603344347025" />
    <synapse sourceNeuronName = "2" targetNeuronName = "9" weight = "-0.1411456122452932" />
    <synapse sourceNeuronName = "2" targetNeuronName = "10" weight = "0.3458975314982182" />
    <synapse sourceNeuronName = "2" targetNeuronName = "11" weight = "-0.6200861172570917" />
    <synapse sourceNeuronName = "2" targetNeuronName = "12" weight = "-0.8546312814543435" />
    <synapse sourceNeuronName = "2" targetNeuronName = "13" weight = "-0.41434325166395336" />
    <synapse sourceNeuronName = "2" targetNeuronName = "14" weight = "-1.4214972099029541" />
    <synapse sourceNeuronName = "2" targetNeuronName = "15" weight = "-0.038523751687241425" />
    <synapse sourceNeuronName = "2" targetNeuronName = "16" weight = "-0.1082421322892011" />
    <synapse sourceNeuronName = "2" targetNeuronName = "17" weight = "-0.677943146104159" />
    <synapse sourceNeuronName = "2" targetNeuronName = "18" weight = "-0.23426691607476235" />
    <synapse sourceNeuronName = "2" targetNeuronName = "19" weight = "-1.9329170164583602" />
    <synapse sourceNeuronName = "2" targetNeuronName = "20" weight = "-1.869887256873461" />
    <synapse sourceNeuronName = "2" targetNeuronName = "21" weight = "-1.5949262959399837" />
    <synapse sourceNeuronName = "2" targetNeuronName = "22" weight = "-0.926745303465053" />
    <synapse sourceNeuronName = "2" targetNeuronName = "23" weight = "-0.2388841108913533" />
    <synapse sourceNeuronName = "2" targetNeuronName = "24" weight = "-0.8185268504655765" />
    <synapse sourceNeuronName = "3" targetNeuronName = "9" weight = "-1.6029679562468784" />
    <synapse sourceNeuronName = "3" targetNeuronName = "10" weight = "-1.5208946922845414" />
    <synapse sourceNeuronName = "3" targetNeuronName = "11" weight = "-1.495183037786472" />
    <synapse sourceNeuronName = "3" targetNeuronName = "12" weight = "-0.3236200164887457" />
    <synapse sourceNeuronName = "3" targetNeuronName = "13" weight = "-1.9352800004881894" />
    <synapse sourceNeuronName = "3" targetNeuronName = "14" weight = "-0.6771495900311209" />
    <synapse sourceNeuronName = "3" targetNeuronName = "15" weight = "-0.2813516124306499" />
    <synapse sourceNeuronName = "3" targetNeuronName = "16" weight = "0.3295337734388146" />
    <synapse sourceNeuronName = "3" targetNeuronName = "17" weight = "0.34680343447812256" />
    <synapse sourceNeuronName = "3" targetNeuronName = "18" weight = "-0.6071128405200577" />
    <synapse sourceNeuronName = "3" targetNeuronName = "19" weight = "-1.2887737686748464" />
    <synapse sourceNeuronName = "3" targetNeuronName = "20" weight = "-0.4850733263596967" />
    <synapse sourceNeuronName = "3" targetNeuronName = "21" weight = "-1.917539842545818" />
    <synapse sourceNeuronName = "3" targetNeuronName = "22" weight = "0.8750104491652095" />
    <synapse sourceNeuronName = "3" targetNeuronName = "23" weight = "-1.4884600384587996" />
    <synapse sourceNeuronName = "3" targetNeuronName = "24" weight = "-0.00511158967649461" />
    <synapse sourceNeuronName = "4" targetNeuronName = "9" weight = "-0.016898823921864592" />
    <synapse sourceNeuronName = "4" targetNeuronName = "10" weight = "0.9570068550747504" />
    <synapse sourceNeuronName = "4" targetNeuronName = "11" weight = "-0.07945315480817605" />
    <synapse sourceNeuronName = "4" targetNeuronName = "12" weight = "-1.3886608544762955" />
    <synapse sourceNeuronName = "4" targetNeuronName = "13" weight = "-0.3542830297698254" />
    <synapse sourceNeuronName = "4" targetNeuronName = "14" weight = "-1.1700684806033002" />
    <synapse sourceNeuronName = "4" targetNeuronName = "15" weight = "-0.1875803779117875" />
    <synapse sourceNeuronName = "4" targetNeuronName = "16" weight = "-1.4459484226664332" />
    <synapse sourceNeuronName = "4" targetNeuronName = "17" weight = "-0.24623229397326973" />
    <synapse sourceNeuronName = "4" targetNeuronName = "18" weight = "-0.573386038620759" />
    <synapse sourceNeuronName = "4" targetNeuronName = "19" weight = "-1.421130419329921" />
    <synapse sourceNeuronName = "4" targetNeuronName = "20" weight = "-1.877867040081256" />
    <synapse sourceNeuronName = "4" targetNeuronName = "21" weight = "-0.10641771412762391" />
    <synapse sourceNeuronName = "4" targetNeuronName = "22" weight = "-1.7423478044503118" />
    <synapse sourceNeuronName = "4" targetNeuronName = "23" weight = "-0.9704816530352651" />
    <synapse sourceNeuronName = "4" targetNeuronName = "24" weight = "-0.7069398936166473" />
    <synapse sourceNeuronName = "5" targetNeuronName = "9" weight = "-1.7683202486644618" />
    <synapse sourceNeuronName = "5" targetNeuronName = "10" weight = "-1.6310808492827453" />
    <synapse sourceNeuronName = "5" targetNeuronName = "11" weight = "-0.8628826130858958" />
    <synapse sourceNeuronName = "5" targetNeuronName = "12" weight = "-0.8680984641689742" />
    <synapse sourceNeuronName = "5" targetNeuronName = "13" weight = "-0.5592505204867335" />
    <synapse sourceNeuronName = "5" targetNeuronName = "14" weight = "-1.8174930233772635" />
    <synapse sourceNeuronName = "5" targetNeuronName = "15" weight = "-1.7571631881197498" />
    <synapse sourceNeuronName = "5" targetNeuronName = "16" weight = "-1.3418433037017523" />
    <synapse sourceNeuronName = "5" targetNeuronName = "17" weight = "-0.36540345518968675" />
    <synapse sourceNeuronName = "5" targetNeuronName = "18" weight = "-0.9699310591171852" />
    <synapse sourceNeuronName = "5" targetNeuronName = "19" weight = "-0.13456534343971627" />
    <synapse sourceNeuronName = "5" targetNeuronName = "20" weight = "-0.5604615222571183" />
    <synapse sourceNeuronName = "5" targetNeuronName = "21" weight = "-0.49248328597716995" />
    <synapse sourceNeuronName = "5" targetNeuronName = "22" weight = "-0.028481423860229782" />
    <synapse sourceNeuronName = "5" targetNeuronName = "23" weight = "-0.08742418900685989" />
    <synapse sourceNeuronName = "5" targetNeuronName = "24" weight = "-1.1978357655130634" />
    <synapse sourceNeuronName = "6" targetNeuronName = "9" weight = "-1.4413424842860334" />
    <synapse sourceNeuronName = "6" targetNeuronName = "10" weight = "0.5359549080284103" />
    <synapse sourceNeuronName = "6" targetNeuronName = "11" weight = "-1.2475338378353893" />
    <synapse sourceNeuronName = "6" targetNeuronName = "12" weight = "-0.9154576404882808" />
    <synapse sourceNeuronName = "6" targetNeuronName = "13" weight = "-1.0853555208636267" />
    <synapse sourceNeuronName = "6" targetNeuronName = "14" weight = "-0.09123516684270228" />
    <synapse sourceNeuronName = "6" targetNeuronName = "15" weight = "-1.176258900987851" />
    <synapse sourceNeuronName = "6" targetNeuronName = "16" weight = "-0.3920922570694101" />
    <synapse sourceNeuronName = "6" targetNeuronName = "17" weight = "-0.22806881612168284" />
    <synapse sourceNeuronName = "6" targetNeuronName = "18" weight = "-0.5664097052597232" />
    <synapse sourceNeuronName = "6" targetNeuronName = "19" weight = "-1.317609826615377" />
    <synapse sourceNeuronName = "6" targetNeuronName = "20" weight = "-0.43736797046335907" />
    <synapse sourceNeuronName = "6" targetNeuronName = "21" weight = "-0.753797339801237" />
    <synapse sourceNeuronName = "6" targetNeuronName = "22" weight = "-0.8664347549351652" />
    <synapse sourceNeuronName = "6" targetNeuronName = "23" weight = "-1.3548513627022332" />
    <synapse sourceNeuronName = "6" targetNeuronName = "24" weight = "-0.12687430487016438" />
    <synapse sourceNeuronName = "7" targetNeuronName = "9" weight = "-0.40691828731798685" />
    <synapse sourceNeuronName = "7" targetNeuronName = "10" weight = "-0.24865896695842227" />
    <synapse sourceNeuronName = "7" targetNeuronName = "11" weight = "-0.295684256072144" />
    <synapse sourceNeuronName = "7" targetNeuronName = "12" weight = "-1.1348712745486416" />
    <synapse sourceNeuronName = "7" targetNeuronName = "13" weight = "-0.24302101274456733" />
    <synapse sourceNeuronName = "7" targetNeuronName = "14" weight = "-1.6737295772679865" />
    <synapse sourceNeuronName = "7" targetNeuronName = "15" weight = "-1.3482450665417234" />
    <synapse sourceNeuronName = "7" targetNeuronName = "16" weight = "-1.0791158658125024" />
    <synapse sourceNeuronName = "7" targetNeuronName = "17" weight = "-1.0137917469072224" />
    <synapse sourceNeuronName = "7" targetNeuronName = "18" weight = "-0.7681297893786396" />
    <synapse sourceNeuronName = "7" targetNeuronName = "19" weight = "-0.4134188175115425" />
    <synapse sourceNeuronName = "7" targetNeuronName = "20" weight = "-1.1629433096854689" />
    <synapse sourceNeuronName = "7" targetNeuronName = "21" weight = "-0.3423334642637803" />
    <synapse sourceNeuronName = "7" targetNeuronName = "22" weight = "-1.1060803345895165" />
    <synapse sourceNeuronName = "7" targetNeuronName = "23" weight = "0.020898454667986677" />
    <synapse sourceNeuronName = "7" targetNeuronName = "24" weight = "-0.36236228561523776" />
    <synapse sourceNeuronName = "8" targetNeuronName = "9" weight = "-1.0038892303126958" />
    <synapse sourceNeuronName = "8" targetNeuronName = "10" weight = "-0.6539277019372214" />
    <synapse sourceNeuronName = "8" targetNeuronName = "11" weight = "-1.1398110252831597" />
    <synapse sourceNeuronName = "8" targetNeuronName = "12" weight = "-0.9287684055827248" />
    <synapse sourceNeuronName = "8" targetNeuronName = "13" weight = "-0.461320271364305" />
    <synapse sourceNeuronName = "8" targetNeuronName = "14" weight = "-0.20082621087666985" />
    <synapse sourceNeuronName = "8" targetNeuronName = "15" weight = "-1.0494139999436543" />
    <synapse sourceNeuronName = "8" targetNeuronName = "16" weight = "-1.4935828082769045" />
    <synapse sourceNeuronName = "8" targetNeuronName = "17" weight = "-0.10587351260472877" />
    <synapse sourceNeuronName = "8" targetNeuronName = "18" weight = "-0.3846115792067113" />
    <synapse sourceNeuronName = "8" targetNeuronName = "19" weight = "-0.5034902221696489" />
    <synapse sourceNeuronName = "8" targetNeuronName = "20" weight = "-0.7289699541301806" />
    <synapse sourceNeuronName = "8" targetNeuronName = "21" weight = "-1.8810098868556533" />
    <synapse sourceNeuronName = "8" targetNeuronName = "22" weight = "-0.12200218662417583" />
    <synapse sourceNeuronName = "8" targetNeuronName = "23" weight = "-1.8909465263726555" />
    <synapse sourceNeuronName = "8" targetNeuronName = "24" weight = "-1.5145080839815763" />
</neuralNetwork>