<neuralNetwork>
    <neuron name = "0" type = "sensor" linkName = "Part0" />
    <neuron name = "1" type = "sensor" linkName = "Part9" />
    <neuron name = "2" type = "sensor" linkName = "Part10" />
    <neuron name = "3" type = "motor"  jointName = "Part0_Part1" />
    <neuron name = "4" type = "motor"  jointName = "Part0_Part2" />
    <neuron name = "5" type = "motor"  jointName = "Part2_Part3" />
    <neuron name = "6" type = "motor"  jointName = "Part1_Part4" />
    <neuron name = "7" type = "motor"  jointName = "Part0_Part5" />
    <neuron name = "8" type = "motor"  jointName = "Part0_Part6" />
    <neuron name = "9" type = "motor"  jointName = "Part4_Part7" />
    <neuron name = "10" type = "motor"  jointName = "Part3_Part8" />
    <neuron name = "11" type = "motor"  jointName = "Part6_Part9" />
    <neuron name = "12" type = "motor"  jointName = "Part5_Part10" />
    <synapse sourceNeuronName = "0" targetNeuronName = "3" weight = "0.9081985862134498" />
    <synapse sourceNeuronName = "0" targetNeuronName = "4" weight = "0.3708929256005933" />
    <synapse sourceNeuronName = "0" targetNeuronName = "5" weight = "-0.7446788123154835" />
    <synapse sourceNeuronName = "0" targetNeuronName = "6" weight = "-1.930898227631053" />
    <synapse sourceNeuronName = "0" targetNeuronName = "7" weight = "-0.14551839166686098" />
    <synapse sourceNeuronName = "0" targetNeuronName = "8" weight = "-1.1390742263004714" />
    <synapse sourceNeuronName = "0" targetNeuronName = "9" weight = "0.5430664469501187" />
    <synapse sourceNeuronName = "0" targetNeuronName = "10" weight = "-0.24329831929419554" />
    <synapse sourceNeuronName = "0" targetNeuronName = "11" weight = "-0.8555210594215912" />
    <synapse sourceNeuronName = "0" targetNeuronName = "12" weight = "-1.8820528103850707" />
    <synapse sourceNeuronName = "1" targetNeuronName = "3" weight = "-0.2762706227675067" />
    <synapse sourceNeuronName = "1" targetNeuronName = "4" weight = "-1.0967833480287001" />
    <synapse sourceNeuronName = "1" targetNeuronName = "5" weight = "-1.1179928046613514" />
    <synapse sourceNeuronName = "1" targetNeuronName = "6" weight = "-1.1905810077760357" />
    <synapse sourceNeuronName = "1" targetNeuronName = "7" weight = "-0.8851329748152508" />
    <synapse sourceNeuronName = "1" targetNeuronName = "8" weight = "-0.24030195163505108" />
    <synapse sourceNeuronName = "1" targetNeuronName = "9" weight = "0.7617638911569973" />
    <synapse sourceNeuronName = "1" targetNeuronName = "10" weight = "-1.961997259209689" />
    <synapse sourceNeuronName = "1" targetNeuronName = "11" weight = "-1.8325392780266268" />
    <synapse sourceNeuronName = "1" targetNeuronName = "12" weight = "-0.16116372828635073" />
    <synapse sourceNeuronName = "2" targetNeuronName = "3" weight = "-0.8096307144761294" />
    <synapse sourceNeuronName = "2" targetNeuronName = "4" weight = "-0.9514130063106241" />
    <synapse sourceNeuronName = "2" targetNeuronName = "5" weight = "-0.7856994513896325" />
    <synapse sourceNeuronName = "2" targetNeuronName = "6" weight = "-0.44951215035530234" />
    <synapse sourceNeuronName = "2" targetNeuronName = "7" weight = "0.2572303238257214" />
    <synapse sourceNeuronName = "2" targetNeuronName = "8" weight = "-1.151667327123584" />
    <synapse sourceNeuronName = "2" targetNeuronName = "9" weight = "0.6370515218835373" />
    <synapse sourceNeuronName = "2" targetNeuronName = "10" weight = "0.6611466452089159" />
    <synapse sourceNeuronName = "2" targetNeuronName = "11" weight = "0.7791956671523406" />
    <synapse sourceNeuronName = "2" targetNeuronName = "12" weight = "-0.26834589503454964" />
</neuralNetwork>