<neuralNetwork>
    <neuron name = "0" type = "sensor" linkName = "RightFoot" />
    <neuron name = "1" type = "sensor" linkName = "LeftFoot" />
    <neuron name = "2" type = "sensor" linkName = "LowerRightArm" />
    <neuron name = "3" type = "sensor" linkName = "LowerLeftArm" />
    <neuron name = "4" type = "sensor" linkName = "LowerRightLeg" />
    <neuron name = "5" type = "sensor" linkName = "LowerLeftLeg" />
    <neuron name = "6" type = "motor"  jointName = "Torso_UpperRightLeg" />
    <neuron name = "7" type = "motor"  jointName = "UpperRightLeg_LowerRightLeg" />
    <neuron name = "8" type = "motor"  jointName = "LowerRightLeg_RightFoot" />
    <neuron name = "9" type = "motor"  jointName = "Torso_UpperLeftLeg" />
    <neuron name = "10" type = "motor"  jointName = "UpperLeftLeg_LowerLeftLeg" />
    <neuron name = "11" type = "motor"  jointName = "LowerLeftLeg_LeftFoot" />
    <neuron name = "12" type = "motor"  jointName = "Torso_UpperRightArm" />
    <neuron name = "13" type = "motor"  jointName = "UpperRightArm_LowerRightArm" />
    <neuron name = "14" type = "motor"  jointName = "Torso_UpperLeftArm" />
    <neuron name = "15" type = "motor"  jointName = "UpperLeftArm_LowerLeftArm" />
    <synapse sourceNeuronName = "0" targetNeuronName = "6" weight = "-0.6758328725167162" />
    <synapse sourceNeuronName = "0" targetNeuronName = "7" weight = "-0.49136217203117893" />
    <synapse sourceNeuronName = "0" targetNeuronName = "8" weight = "-0.3257577241323413" />
    <synapse sourceNeuronName = "0" targetNeuronName = "9" weight = "0.2907230038970283" />
    <synapse sourceNeuronName = "0" targetNeuronName = "10" weight = "0.8983072118054523" />
    <synapse sourceNeuronName = "0" targetNeuronName = "11" weight = "-0.7083435518065113" />
    <synapse sourceNeuronName = "0" targetNeuronName = "12" weight = "-0.9804546305757533" />
    <synapse sourceNeuronName = "0" targetNeuronName = "13" weight = "0.06261040546819219" />
    <synapse sourceNeuronName = "0" targetNeuronName = "14" weight = "0.6033336655249895" />
    <synapse sourceNeuronName = "0" targetNeuronName = "15" weight = "-0.8216374308404257" />
    <synapse sourceNeuronName = "1" targetNeuronName = "6" weight = "-0.6706636180279038" />
    <synapse sourceNeuronName = "1" targetNeuronName = "7" weight = "0.6030494611250679" />
    <synapse sourceNeuronName = "1" targetNeuronName = "8" weight = "0.5791216025024684" />
    <synapse sourceNeuronName = "1" targetNeuronName = "9" weight = "-0.3413747396893587" />
    <synapse sourceNeuronName = "1" targetNeuronName = "10" weight = "0.8509733826307071" />
    <synapse sourceNeuronName = "1" targetNeuronName = "11" weight = "0.1983801451792031" />
    <synapse sourceNeuronName = "1" targetNeuronName = "12" weight = "-0.9262580783087828" />
    <synapse sourceNeuronName = "1" targetNeuronName = "13" weight = "0.44240313434590384" />
    <synapse sourceNeuronName = "1" targetNeuronName = "14" weight = "-0.29276179152197757" />
    <synapse sourceNeuronName = "1" targetNeuronName = "15" weight = "-0.6226954929226658" />
    <synapse sourceNeuronName = "2" targetNeuronName = "6" weight = "0.9788194818696594" />
    <synapse sourceNeuronName = "2" targetNeuronName = "7" weight = "-0.9776382171377844" />
    <synapse sourceNeuronName = "2" targetNeuronName = "8" weight = "0.19831809957013102" />
    <synapse sourceNeuronName = "2" targetNeuronName = "9" weight = "0.5878179899996279" />
    <synapse sourceNeuronName = "2" targetNeuronName = "10" weight = "-0.27845199748047156" />
    <synapse sourceNeuronName = "2" targetNeuronName = "11" weight = "0.22391053101810576" />
    <synapse sourceNeuronName = "2" targetNeuronName = "12" weight = "0.6030519303826316" />
    <synapse sourceNeuronName = "2" targetNeuronName = "13" weight = "-0.8012588962740095" />
    <synapse sourceNeuronName = "2" targetNeuronName = "14" weight = "0.5035364080789904" />
    <synapse sourceNeuronName = "2" targetNeuronName = "15" weight = "-0.9706234245891141" />
    <synapse sourceNeuronName = "3" targetNeuronName = "6" weight = "0.7807904485919568" />
    <synapse sourceNeuronName = "3" targetNeuronName = "7" weight = "0.49524749605707274" />
    <synapse sourceNeuronName = "3" targetNeuronName = "8" weight = "0.5435590322327113" />
    <synapse sourceNeuronName = "3" targetNeuronName = "9" weight = "-0.1674434876565687" />
    <synapse sourceNeuronName = "3" targetNeuronName = "10" weight = "0.2796696372370777" />
    <synapse sourceNeuronName = "3" targetNeuronName = "11" weight = "0.8092802173992628" />
    <synapse sourceNeuronName = "3" targetNeuronName = "12" weight = "0.9596837875301101" />
    <synapse sourceNeuronName = "3" targetNeuronName = "13" weight = "-0.2925044444226301" />
    <synapse sourceNeuronName = "3" targetNeuronName = "14" weight = "-0.8842628088692364" />
    <synapse sourceNeuronName = "3" targetNeuronName = "15" weight = "0.3534511240128295" />
    <synapse sourceNeuronName = "4" targetNeuronName = "6" weight = "0.9526315059289101" />
    <synapse sourceNeuronName = "4" targetNeuronName = "7" weight = "-0.2406200206528597" />
    <synapse sourceNeuronName = "4" targetNeuronName = "8" weight = "-0.6087378534481853" />
    <synapse sourceNeuronName = "4" targetNeuronName = "9" weight = "-0.7376160947504193" />
    <synapse sourceNeuronName = "4" targetNeuronName = "10" weight = "0.6693410087866916" />
    <synapse sourceNeuronName = "4" targetNeuronName = "11" weight = "0.32807679586676564" />
    <synapse sourceNeuronName = "4" targetNeuronName = "12" weight = "-0.41746784085659594" />
    <synapse sourceNeuronName = "4" targetNeuronName = "13" weight = "-0.18588277810641785" />
    <synapse sourceNeuronName = "4" targetNeuronName = "14" weight = "-0.11061406622899361" />
    <synapse sourceNeuronName = "4" targetNeuronName = "15" weight = "-0.11674431591795353" />
    <synapse sourceNeuronName = "5" targetNeuronName = "6" weight = "0.4374201384825269" />
    <synapse sourceNeuronName = "5" targetNeuronName = "7" weight = "-0.12186499495545733" />
    <synapse sourceNeuronName = "5" targetNeuronName = "8" weight = "-0.2588026501112739" />
    <synapse sourceNeuronName = "5" targetNeuronName = "9" weight = "-0.014061298405914968" />
    <synapse sourceNeuronName = "5" targetNeuronName = "10" weight = "-0.3814513671081321" />
    <synapse sourceNeuronName = "5" targetNeuronName = "11" weight = "0.1562292763347659" />
    <synapse sourceNeuronName = "5" targetNeuronName = "12" weight = "0.6731156709197916" />
    <synapse sourceNeuronName = "5" targetNeuronName = "13" weight = "0.7289415970502013" />
    <synapse sourceNeuronName = "5" targetNeuronName = "14" weight = "0.35361408178595455" />
    <synapse sourceNeuronName = "5" targetNeuronName = "15" weight = "0.26113970883645665" />
</neuralNetwork>