<neuralNetwork>
    <neuron name = "0" type = "sensor" linkName = "Part0" />
    <neuron name = "1" type = "sensor" linkName = "Part1" />
    <neuron name = "2" type = "sensor" linkName = "Part2" />
    <neuron name = "3" type = "sensor" linkName = "Part3" />
    <neuron name = "4" type = "sensor" linkName = "Part4" />
    <neuron name = "5" type = "sensor" linkName = "Part7" />
    <neuron name = "6" type = "sensor" linkName = "Part8" />
    <neuron name = "7" type = "motor"  jointName = "Part0_Part1" />
    <neuron name = "8" type = "motor"  jointName = "Part0_Part2" />
    <neuron name = "9" type = "motor"  jointName = "Part1_Part3" />
    <neuron name = "10" type = "motor"  jointName = "Part2_Part4" />
    <neuron name = "11" type = "motor"  jointName = "Part2_Part5" />
    <neuron name = "12" type = "motor"  jointName = "Part1_Part6" />
    <neuron name = "13" type = "motor"  jointName = "Part3_Part7" />
    <neuron name = "14" type = "motor"  jointName = "Part4_Part8" />
    <neuron name = "15" type = "motor"  jointName = "Part7_Part9" />
    <neuron name = "16" type = "motor"  jointName = "Part8_Part10" />
    <neuron name = "17" type = "motor"  jointName = "Part2_Part11" />
    <neuron name = "18" type = "motor"  jointName = "Part1_Part12" />
    <synapse sourceNeuronName = "0" targetNeuronName = "7" weight = "-0.9238221588364035" />
    <synapse sourceNeuronName = "0" targetNeuronName = "8" weight = "-0.1303316836278534" />
    <synapse sourceNeuronName = "0" targetNeuronName = "9" weight = "-0.8977616698466111" />
    <synapse sourceNeuronName = "0" targetNeuronName = "10" weight = "-1.2000043724924707" />
    <synapse sourceNeuronName = "0" targetNeuronName = "11" weight = "-0.23597105319949563" />
    <synapse sourceNeuronName = "0" targetNeuronName = "12" weight = "-1.2799437236974736" />
    <synapse sourceNeuronName = "0" targetNeuronName = "13" weight = "-0.6312585030041684" />
    <synapse sourceNeuronName = "0" targetNeuronName = "14" weight = "-1.0572664979997102" />
    <synapse sourceNeuronName = "0" targetNeuronName = "15" weight = "-1.1521488432841962" />
    <synapse sourceNeuronName = "0" targetNeuronName = "16" weight = "-0.8198366784634883" />
    <synapse sourceNeuronName = "0" targetNeuronName = "17" weight = "-1.740533340989347" />
    <synapse sourceNeuronName = "0" targetNeuronName = "18" weight = "-0.5486372389972998" />
    <synapse sourceNeuronName = "1" targetNeuronName = "7" weight = "0.4683622558814049" />
    <synapse sourceNeuronName = "1" targetNeuronName = "8" weight = "0.12814388276759003" />
    <synapse sourceNeuronName = "1" targetNeuronName = "9" weight = "-1.0969862796825005" />
    <synapse sourceNeuronName = "1" targetNeuronName = "10" weight = "-0.804579457411684" />
    <synapse sourceNeuronName = "1" targetNeuronName = "11" weight = "-0.044002050340647525" />
    <synapse sourceNeuronName = "1" targetNeuronName = "12" weight = "-1.001360350979002" />
    <synapse sourceNeuronName = "1" targetNeuronName = "13" weight = "-0.544593153580708" />
    <synapse sourceNeuronName = "1" targetNeuronName = "14" weight = "-0.18227531230302718" />
    <synapse sourceNeuronName = "1" targetNeuronName = "15" weight = "-1.792822626876288" />
    <synapse sourceNeuronName = "1" targetNeuronName = "16" weight = "-0.10392308627572255" />
    <synapse sourceNeuronName = "1" targetNeuronName = "17" weight = "-0.5929414388712817" />
    <synapse sourceNeuronName = "1" targetNeuronName = "18" weight = "-1.306997742983363" />
    <synapse sourceNeuronName = "2" targetNeuronName = "7" weight = "-0.5240865821443987" />
    <synapse sourceNeuronName = "2" targetNeuronName = "8" weight = "0.6430237674343204" />
    <synapse sourceNeuronName = "2" targetNeuronName = "9" weight = "0.46752350370553675" />
    <synapse sourceNeuronName = "2" targetNeuronName = "10" weight = "0.24983349970462765" />
    <synapse sourceNeuronName = "2" targetNeuronName = "11" weight = "-1.8269671672841528" />
    <synapse sourceNeuronName = "2" targetNeuronName = "12" weight = "-1.6693501493715976" />
    <synapse sourceNeuronName = "2" targetNeuronName = "13" weight = "-0.555368452569557" />
    <synapse sourceNeuronName = "2" targetNeuronName = "14" weight = "-0.887860556984611" />
    <synapse sourceNeuronName = "2" targetNeuronName = "15" weight = "-1.8079267777828998" />
    <synapse sourceNeuronName = "2" targetNeuronName = "16" weight = "-0.25262612324055844" />
    <synapse sourceNeuronName = "2" targetNeuronName = "17" weight = "-1.440852018355468" />
    <synapse sourceNeuronName = "2" targetNeuronName = "18" weight = "-1.4610265046162076" />
    <synapse sourceNeuronName = "3" targetNeuronName = "7" weight = "-1.1619638158612473" />
    <synapse sourceNeuronName = "3" targetNeuronName = "8" weight = "-1.134813731932684" />
    <synapse sourceNeuronName = "3" targetNeuronName = "9" weight = "-0.21160372288554186" />
    <synapse sourceNeuronName = "3" targetNeuronName = "10" weight = "0.03131313732710028" />
    <synapse sourceNeuronName = "3" targetNeuronName = "11" weight = "-1.497570736661785" />
    <synapse sourceNeuronName = "3" targetNeuronName = "12" weight = "-0.7552430857396375" />
    <synapse sourceNeuronName = "3" targetNeuronName = "13" weight = "-1.0190020250349507" />
    <synapse sourceNeuronName = "3" targetNeuronName = "14" weight = "-0.33038815767144514" />
    <synapse sourceNeuronName = "3" targetNeuronName = "15" weight = "0.4858979411237303" />
    <synapse sourceNeuronName = "3" targetNeuronName = "16" weight = "-0.6321333957439708" />
    <synapse sourceNeuronName = "3" targetNeuronName = "17" weight = "-0.9005080383448323" />
    <synapse sourceNeuronName = "3" targetNeuronName = "18" weight = "-0.3207540180147992" />
    <synapse sourceNeuronName = "4" targetNeuronName = "7" weight = "-0.7605800892027967" />
    <synapse sourceNeuronName = "4" targetNeuronName = "8" weight = "-0.9641985485737459" />
    <synapse sourceNeuronName = "4" targetNeuronName = "9" weight = "-1.035589446612312" />
    <synapse sourceNeuronName = "4" targetNeuronName = "10" weight = "-0.7545035617518066" />
    <synapse sourceNeuronName = "4" targetNeuronName = "11" weight = "-1.3507628268718161" />
    <synapse sourceNeuronName = "4" targetNeuronName = "12" weight = "-0.1664858507646494" />
    <synapse sourceNeuronName = "4" targetNeuronName = "13" weight = "-1.0507922088716453" />
    <synapse sourceNeuronName = "4" targetNeuronName = "14" weight = "-1.6740923750068968" />
    <synapse sourceNeuronName = "4" targetNeuronName = "15" weight = "-0.6360024099991584" />
    <synapse sourceNeuronName = "4" targetNeuronName = "16" weight = "-1.234891780473159" />
    <synapse sourceNeuronName = "4" targetNeuronName = "17" weight = "-0.08374487031742928" />
    <synapse sourceNeuronName = "4" targetNeuronName = "18" weight = "-0.8102718643733475" />
    <synapse sourceNeuronName = "5" targetNeuronName = "7" weight = "0.8142148755950906" />
    <synapse sourceNeuronName = "5" targetNeuronName = "8" weight = "-1.8340525266309404" />
    <synapse sourceNeuronName = "5" targetNeuronName = "9" weight = "-1.7141899099765947" />
    <synapse sourceNeuronName = "5" targetNeuronName = "10" weight = "-1.1080274797014191" />
    <synapse sourceNeuronName = "5" targetNeuronName = "11" weight = "-1.4693822914267893" />
    <synapse sourceNeuronName = "5" targetNeuronName = "12" weight = "-0.10194925799912191" />
    <synapse sourceNeuronName = "5" targetNeuronName = "13" weight = "-0.4577191863755423" />
    <synapse sourceNeuronName = "5" targetNeuronName = "14" weight = "-0.6147204313373504" />
    <synapse sourceNeuronName = "5" targetNeuronName = "15" weight = "-1.3457969113986485" />
    <synapse sourceNeuronName = "5" targetNeuronName = "16" weight = "-1.0294203530479087" />
    <synapse sourceNeuronName = "5" targetNeuronName = "17" weight = "-1.5800491163174006" />
    <synapse sourceNeuronName = "5" targetNeuronName = "18" weight = "-0.8233934061886259" />
    <synapse sourceNeuronName = "6" targetNeuronName = "7" weight = "-1.583882917901651" />
    <synapse sourceNeuronName = "6" targetNeuronName = "8" weight = "-1.9667950089013062" />
    <synapse sourceNeuronName = "6" targetNeuronName = "9" weight = "-1.899499334538804" />
    <synapse sourceNeuronName = "6" targetNeuronName = "10" weight = "-1.8142182426288633" />
    <synapse sourceNeuronName = "6" targetNeuronName = "11" weight = "-1.6534025883814782" />
    <synapse sourceNeuronName = "6" targetNeuronName = "12" weight = "-1.3279989155339134" />
    <synapse sourceNeuronName = "6" targetNeuronName = "13" weight = "-0.32464915605163625" />
    <synapse sourceNeuronName = "6" targetNeuronName = "14" weight = "-0.8616178433463844" />
    <synapse sourceNeuronName = "6" targetNeuronName = "15" weight = "-0.21860174735555749" />
    <synapse sourceNeuronName = "6" targetNeuronName = "16" weight = "-1.2379150578127605" />
    <synapse sourceNeuronName = "6" targetNeuronName = "17" weight = "-1.199907717004517" />
    <synapse sourceNeuronName = "6" targetNeuronName = "18" weight = "-1.958433642892814" />
</neuralNetwork>