<neuralNetwork>
    <neuron name = "0" type = "sensor" linkName = "RightFoot" />
    <neuron name = "1" type = "sensor" linkName = "LeftFoot" />
    <neuron name = "2" type = "sensor" linkName = "LowerRightArm" />
    <neuron name = "3" type = "sensor" linkName = "LowerLeftArm" />
    <neuron name = "4" type = "sensor" linkName = "LowerRightLeg" />
    <neuron name = "5" type = "sensor" linkName = "LowerLeftLeg" />
    <neuron name = "6" type = "motor"  jointName = "Torso_UpperRightLeg" />
    <neuron name = "7" type = "motor"  jointName = "UpperRightLeg_LowerRightLeg" />
    <neuron name = "8" type = "motor"  jointName = "LowerRightLeg_RightFoot" />
    <neuron name = "9" type = "motor"  jointName = "Torso_UpperLeftLeg" />
    <neuron name = "10" type = "motor"  jointName = "UpperLeftLeg_LowerLeftLeg" />
    <neuron name = "11" type = "motor"  jointName = "LowerLeftLeg_LeftFoot" />
    <neuron name = "12" type = "motor"  jointName = "Torso_UpperRightArm" />
    <neuron name = "13" type = "motor"  jointName = "UpperRightArm_LowerRightArm" />
    <neuron name = "14" type = "motor"  jointName = "Torso_UpperLeftArm" />
    <neuron name = "15" type = "motor"  jointName = "UpperLeftArm_LowerLeftArm" />
    <synapse sourceNeuronName = "0" targetNeuronName = "6" weight = "0.6541333096696011" />
    <synapse sourceNeuronName = "0" targetNeuronName = "7" weight = "0.783331540659669" />
    <synapse sourceNeuronName = "0" targetNeuronName = "8" weight = "0.7086757342116412" />
    <synapse sourceNeuronName = "0" targetNeuronName = "9" weight = "0.3212802882786183" />
    <synapse sourceNeuronName = "0" targetNeuronName = "10" weight = "-0.3151268723915257" />
    <synapse sourceNeuronName = "0" targetNeuronName = "11" weight = "0.288105853407157" />
    <synapse sourceNeuronName = "0" targetNeuronName = "12" weight = "0.1509284754735314" />
    <synapse sourceNeuronName = "0" targetNeuronName = "13" weight = "-0.5376965484464395" />
    <synapse sourceNeuronName = "0" targetNeuronName = "14" weight = "0.21859609572072203" />
    <synapse sourceNeuronName = "0" targetNeuronName = "15" weight = "-0.3439637375292759" />
    <synapse sourceNeuronName = "1" targetNeuronName = "6" weight = "0.2064091207081744" />
    <synapse sourceNeuronName = "1" targetNeuronName = "7" weight = "-0.9196889945594566" />
    <synapse sourceNeuronName = "1" targetNeuronName = "8" weight = "0.940188502052528" />
    <synapse sourceNeuronName = "1" targetNeuronName = "9" weight = "-0.2077870678773719" />
    <synapse sourceNeuronName = "1" targetNeuronName = "10" weight = "-0.5571064736219613" />
    <synapse sourceNeuronName = "1" targetNeuronName = "11" weight = "-0.4757575287404938" />
    <synapse sourceNeuronName = "1" targetNeuronName = "12" weight = "0.021678827160120706" />
    <synapse sourceNeuronName = "1" targetNeuronName = "13" weight = "-0.9128382417569261" />
    <synapse sourceNeuronName = "1" targetNeuronName = "14" weight = "-0.6390412439621236" />
    <synapse sourceNeuronName = "1" targetNeuronName = "15" weight = "-0.811728883958925" />
    <synapse sourceNeuronName = "2" targetNeuronName = "6" weight = "-0.9598325279674407" />
    <synapse sourceNeuronName = "2" targetNeuronName = "7" weight = "-0.9020849615591744" />
    <synapse sourceNeuronName = "2" targetNeuronName = "8" weight = "0.078252587029914" />
    <synapse sourceNeuronName = "2" targetNeuronName = "9" weight = "0.9524656581770263" />
    <synapse sourceNeuronName = "2" targetNeuronName = "10" weight = "0.35745209579909787" />
    <synapse sourceNeuronName = "2" targetNeuronName = "11" weight = "0.09239278103198822" />
    <synapse sourceNeuronName = "2" targetNeuronName = "12" weight = "0.2131498523739972" />
    <synapse sourceNeuronName = "2" targetNeuronName = "13" weight = "0.12712578445478684" />
    <synapse sourceNeuronName = "2" targetNeuronName = "14" weight = "0.19677904529052537" />
    <synapse sourceNeuronName = "2" targetNeuronName = "15" weight = "-0.090978647738029" />
    <synapse sourceNeuronName = "3" targetNeuronName = "6" weight = "0.8743119668460146" />
    <synapse sourceNeuronName = "3" targetNeuronName = "7" weight = "0.8994364306368352" />
    <synapse sourceNeuronName = "3" targetNeuronName = "8" weight = "0.4719221749268865" />
    <synapse sourceNeuronName = "3" targetNeuronName = "9" weight = "0.2212795496360349" />
    <synapse sourceNeuronName = "3" targetNeuronName = "10" weight = "-0.00021849942375729015" />
    <synapse sourceNeuronName = "3" targetNeuronName = "11" weight = "-0.3783228419954612" />
    <synapse sourceNeuronName = "3" targetNeuronName = "12" weight = "-0.8095206173710732" />
    <synapse sourceNeuronName = "3" targetNeuronName = "13" weight = "0.7159452342548394" />
    <synapse sourceNeuronName = "3" targetNeuronName = "14" weight = "0.7471605399303112" />
    <synapse sourceNeuronName = "3" targetNeuronName = "15" weight = "-0.11957688074134243" />
    <synapse sourceNeuronName = "4" targetNeuronName = "6" weight = "0.4615565526219467" />
    <synapse sourceNeuronName = "4" targetNeuronName = "7" weight = "-0.7456355645651562" />
    <synapse sourceNeuronName = "4" targetNeuronName = "8" weight = "-0.5131741088716621" />
    <synapse sourceNeuronName = "4" targetNeuronName = "9" weight = "0.05929311402327264" />
    <synapse sourceNeuronName = "4" targetNeuronName = "10" weight = "-0.203230798816745" />
    <synapse sourceNeuronName = "4" targetNeuronName = "11" weight = "0.2607028821636832" />
    <synapse sourceNeuronName = "4" targetNeuronName = "12" weight = "-0.8734232140105156" />
    <synapse sourceNeuronName = "4" targetNeuronName = "13" weight = "-0.20661940691848169" />
    <synapse sourceNeuronName = "4" targetNeuronName = "14" weight = "-0.43491006273866617" />
    <synapse sourceNeuronName = "4" targetNeuronName = "15" weight = "-0.0394846898364023" />
    <synapse sourceNeuronName = "5" targetNeuronName = "6" weight = "0.18069598174025603" />
    <synapse sourceNeuronName = "5" targetNeuronName = "7" weight = "-0.47314774093573675" />
    <synapse sourceNeuronName = "5" targetNeuronName = "8" weight = "0.3941870120564426" />
    <synapse sourceNeuronName = "5" targetNeuronName = "9" weight = "-0.386046528810976" />
    <synapse sourceNeuronName = "5" targetNeuronName = "10" weight = "0.11878378900487907" />
    <synapse sourceNeuronName = "5" targetNeuronName = "11" weight = "0.9146125876219808" />
    <synapse sourceNeuronName = "5" targetNeuronName = "12" weight = "0.5586317680492066" />
    <synapse sourceNeuronName = "5" targetNeuronName = "13" weight = "-0.12390841591288138" />
    <synapse sourceNeuronName = "5" targetNeuronName = "14" weight = "0.6437462048543037" />
    <synapse sourceNeuronName = "5" targetNeuronName = "15" weight = "-0.2681943790116128" />
</neuralNetwork>