<neuralNetwork>
    <neuron name = "0" type = "sensor" linkName = "Part0" />
    <neuron name = "1" type = "sensor" linkName = "Part1" />
    <neuron name = "2" type = "sensor" linkName = "Part2" />
    <neuron name = "3" type = "sensor" linkName = "Part6" />
    <neuron name = "4" type = "sensor" linkName = "Part8" />
    <neuron name = "5" type = "sensor" linkName = "Part11" />
    <neuron name = "6" type = "sensor" linkName = "Part14" />
    <neuron name = "7" type = "sensor" linkName = "Part16" />
    <neuron name = "8" type = "motor"  jointName = "Part0_Part1" />
    <neuron name = "9" type = "motor"  jointName = "Part1_Part2" />
    <neuron name = "10" type = "motor"  jointName = "Part2_Part3" />
    <neuron name = "11" type = "motor"  jointName = "Part2_Part4" />
    <neuron name = "12" type = "motor"  jointName = "Part2_Part5" />
    <neuron name = "13" type = "motor"  jointName = "Part2_Part6" />
    <neuron name = "14" type = "motor"  jointName = "Part1_Part7" />
    <neuron name = "15" type = "motor"  jointName = "Part2_Part8" />
    <neuron name = "16" type = "motor"  jointName = "Part7_Part9" />
    <neuron name = "17" type = "motor"  jointName = "Part1_Part10" />
    <neuron name = "18" type = "motor"  jointName = "Part4_Part11" />
    <neuron name = "19" type = "motor"  jointName = "Part6_Part12" />
    <neuron name = "20" type = "motor"  jointName = "Part12_Part13" />
    <neuron name = "21" type = "motor"  jointName = "Part3_Part14" />
    <neuron name = "22" type = "motor"  jointName = "Part10_Part15" />
    <neuron name = "23" type = "motor"  jointName = "Part10_Part16" />
    <synapse sourceNeuronName = "0" targetNeuronName = "8" weight = "-0.6052142325091203" />
    <synapse sourceNeuronName = "0" targetNeuronName = "9" weight = "-0.6112631991572999" />
    <synapse sourceNeuronName = "0" targetNeuronName = "10" weight = "-0.6757492045244091" />
    <synapse sourceNeuronName = "0" targetNeuronName = "11" weight = "-1.694171993590131" />
    <synapse sourceNeuronName = "0" targetNeuronName = "12" weight = "-0.8930847236447175" />
    <synapse sourceNeuronName = "0" targetNeuronName = "13" weight = "-0.9450076393118625" />
    <synapse sourceNeuronName = "0" targetNeuronName = "14" weight = "-1.6156203632918238" />
    <synapse sourceNeuronName = "0" targetNeuronName = "15" weight = "-1.1103812547094176" />
    <synapse sourceNeuronName = "0" targetNeuronName = "16" weight = "-1.3411567642241682" />
    <synapse sourceNeuronName = "0" targetNeuronName = "17" weight = "-1.6179858599879622" />
    <synapse sourceNeuronName = "0" targetNeuronName = "18" weight = "-1.733471886882072" />
    <synapse sourceNeuronName = "0" targetNeuronName = "19" weight = "-0.5267825626000238" />
    <synapse sourceNeuronName = "0" targetNeuronName = "20" weight = "-1.9843643699088258" />
    <synapse sourceNeuronName = "0" targetNeuronName = "21" weight = "-0.315653250709484" />
    <synapse sourceNeuronName = "0" targetNeuronName = "22" weight = "-1.290257372407137" />
    <synapse sourceNeuronName = "0" targetNeuronName = "23" weight = "0.8345243366967072" />
    <synapse sourceNeuronName = "1" targetNeuronName = "8" weight = "-0.0226396415425556" />
    <synapse sourceNeuronName = "1" targetNeuronName = "9" weight = "-0.6678939879456953" />
    <synapse sourceNeuronName = "1" targetNeuronName = "10" weight = "-0.03727067831204267" />
    <synapse sourceNeuronName = "1" targetNeuronName = "11" weight = "-1.140539073485773" />
    <synapse sourceNeuronName = "1" targetNeuronName = "12" weight = "-0.5761108732545475" />
    <synapse sourceNeuronName = "1" targetNeuronName = "13" weight = "-0.569257071288505" />
    <synapse sourceNeuronName = "1" targetNeuronName = "14" weight = "-1.7550159827278584" />
    <synapse sourceNeuronName = "1" targetNeuronName = "15" weight = "-1.1701033578643598" />
    <synapse sourceNeuronName = "1" targetNeuronName = "16" weight = "-0.8247248166488932" />
    <synapse sourceNeuronName = "1" targetNeuronName = "17" weight = "-1.3833156102109583" />
    <synapse sourceNeuronName = "1" targetNeuronName = "18" weight = "-0.8318342478594825" />
    <synapse sourceNeuronName = "1" targetNeuronName = "19" weight = "-0.586455632584709" />
    <synapse sourceNeuronName = "1" targetNeuronName = "20" weight = "-1.7609707748098193" />
    <synapse sourceNeuronName = "1" targetNeuronName = "21" weight = "-0.6283974979238673" />
    <synapse sourceNeuronName = "1" targetNeuronName = "22" weight = "-1.2229722719764877" />
    <synapse sourceNeuronName = "1" targetNeuronName = "23" weight = "-1.30422011408494" />
    <synapse sourceNeuronName = "2" targetNeuronName = "8" weight = "-0.26142905770405833" />
    <synapse sourceNeuronName = "2" targetNeuronName = "9" weight = "-0.13260744022725146" />
    <synapse sourceNeuronName = "2" targetNeuronName = "10" weight = "-1.2800974574399668" />
    <synapse sourceNeuronName = "2" targetNeuronName = "11" weight = "-1.1568533223818596" />
    <synapse sourceNeuronName = "2" targetNeuronName = "12" weight = "-0.25527106071720973" />
    <synapse sourceNeuronName = "2" targetNeuronName = "13" weight = "-1.7549984089086406" />
    <synapse sourceNeuronName = "2" targetNeuronName = "14" weight = "-0.9271037919551781" />
    <synapse sourceNeuronName = "2" targetNeuronName = "15" weight = "-0.9862418419528995" />
    <synapse sourceNeuronName = "2" targetNeuronName = "16" weight = "-0.9092764210441246" />
    <synapse sourceNeuronName = "2" targetNeuronName = "17" weight = "-0.35478714516734744" />
    <synapse sourceNeuronName = "2" targetNeuronName = "18" weight = "-0.27346637787961803" />
    <synapse sourceNeuronName = "2" targetNeuronName = "19" weight = "-0.31382844556988476" />
    <synapse sourceNeuronName = "2" targetNeuronName = "20" weight = "-0.8819430468806058" />
    <synapse sourceNeuronName = "2" targetNeuronName = "21" weight = "-0.8282876785786757" />
    <synapse sourceNeuronName = "2" targetNeuronName = "22" weight = "-1.0482469462565058" />
    <synapse sourceNeuronName = "2" targetNeuronName = "23" weight = "-0.20441798704493785" />
    <synapse sourceNeuronName = "3" targetNeuronName = "8" weight = "-0.6848088621098494" />
    <synapse sourceNeuronName = "3" targetNeuronName = "9" weight = "-1.1889163460365395" />
    <synapse sourceNeuronName = "3" targetNeuronName = "10" weight = "-0.903676807148319" />
    <synapse sourceNeuronName = "3" targetNeuronName = "11" weight = "-1.9745243633355667" />
    <synapse sourceNeuronName = "3" targetNeuronName = "12" weight = "-0.06441428533843019" />
    <synapse sourceNeuronName = "3" targetNeuronName = "13" weight = "-0.21124892910168214" />
    <synapse sourceNeuronName = "3" targetNeuronName = "14" weight = "-0.8769920175850732" />
    <synapse sourceNeuronName = "3" targetNeuronName = "15" weight = "-0.2614839546192136" />
    <synapse sourceNeuronName = "3" targetNeuronName = "16" weight = "-0.6429179436934689" />
    <synapse sourceNeuronName = "3" targetNeuronName = "17" weight = "-1.1866069628942784" />
    <synapse sourceNeuronName = "3" targetNeuronName = "18" weight = "-0.1186956273584634" />
    <synapse sourceNeuronName = "3" targetNeuronName = "19" weight = "-0.652138881822647" />
    <synapse sourceNeuronName = "3" targetNeuronName = "20" weight = "-0.23446888522939435" />
    <synapse sourceNeuronName = "3" targetNeuronName = "21" weight = "-0.28088267103411413" />
    <synapse sourceNeuronName = "3" targetNeuronName = "22" weight = "-1.2491434544762394" />
    <synapse sourceNeuronName = "3" targetNeuronName = "23" weight = "-1.9280023290613537" />
    <synapse sourceNeuronName = "4" targetNeuronName = "8" weight = "-1.1579968518982349" />
    <synapse sourceNeuronName = "4" targetNeuronName = "9" weight = "-1.0531065722714954" />
    <synapse sourceNeuronName = "4" targetNeuronName = "10" weight = "-0.9646154131361377" />
    <synapse sourceNeuronName = "4" targetNeuronName = "11" weight = "-1.7050644867636566" />
    <synapse sourceNeuronName = "4" targetNeuronName = "12" weight = "-1.6715690093851499" />
    <synapse sourceNeuronName = "4" targetNeuronName = "13" weight = "0.6744311980854185" />
    <synapse sourceNeuronName = "4" targetNeuronName = "14" weight = "-1.702364618649024" />
    <synapse sourceNeuronName = "4" targetNeuronName = "15" weight = "-0.005412532771581935" />
    <synapse sourceNeuronName = "4" targetNeuronName = "16" weight = "-1.7667184614677314" />
    <synapse sourceNeuronName = "4" targetNeuronName = "17" weight = "-0.10876499611546153" />
    <synapse sourceNeuronName = "4" targetNeuronName = "18" weight = "-0.5579517551666213" />
    <synapse sourceNeuronName = "4" targetNeuronName = "19" weight = "-1.2506778588449299" />
    <synapse sourceNeuronName = "4" targetNeuronName = "20" weight = "-1.977683748227929" />
    <synapse sourceNeuronName = "4" targetNeuronName = "21" weight = "-0.3600610422432906" />
    <synapse sourceNeuronName = "4" targetNeuronName = "22" weight = "-0.9290410253414554" />
    <synapse sourceNeuronName = "4" targetNeuronName = "23" weight = "-0.8225027990814362" />
    <synapse sourceNeuronName = "5" targetNeuronName = "8" weight = "-0.15335371127230113" />
    <synapse sourceNeuronName = "5" targetNeuronName = "9" weight = "0.3839064345564345" />
    <synapse sourceNeuronName = "5" targetNeuronName = "10" weight = "0.15242202406506" />
    <synapse sourceNeuronName = "5" targetNeuronName = "11" weight = "0.20443017164898536" />
    <synapse sourceNeuronName = "5" targetNeuronName = "12" weight = "-0.5815581385890227" />
    <synapse sourceNeuronName = "5" targetNeuronName = "13" weight = "-0.9652406882295232" />
    <synapse sourceNeuronName = "5" targetNeuronName = "14" weight = "-0.4999507217603725" />
    <synapse sourceNeuronName = "5" targetNeuronName = "15" weight = "-0.6009223035251114" />
    <synapse sourceNeuronName = "5" targetNeuronName = "16" weight = "-0.005455950238489882" />
    <synapse sourceNeuronName = "5" targetNeuronName = "17" weight = "-0.7444267973210821" />
    <synapse sourceNeuronName = "5" targetNeuronName = "18" weight = "-1.4956822821357805" />
    <synapse sourceNeuronName = "5" targetNeuronName = "19" weight = "-1.2116339435908383" />
    <synapse sourceNeuronName = "5" targetNeuronName = "20" weight = "-0.3681494057628205" />
    <synapse sourceNeuronName = "5" targetNeuronName = "21" weight = "-0.9215918968927643" />
    <synapse sourceNeuronName = "5" targetNeuronName = "22" weight = "-1.8194203209357482" />
    <synapse sourceNeuronName = "5" targetNeuronName = "23" weight = "-1.051598325185621" />
    <synapse sourceNeuronName = "6" targetNeuronName = "8" weight = "-0.8242934218339872" />
    <synapse sourceNeuronName = "6" targetNeuronName = "9" weight = "-1.8766138923079563" />
    <synapse sourceNeuronName = "6" targetNeuronName = "10" weight = "-1.4798948343371694" />
    <synapse sourceNeuronName = "6" targetNeuronName = "11" weight = "-0.9740177221923916" />
    <synapse sourceNeuronName = "6" targetNeuronName = "12" weight = "-1.2128419680563867" />
    <synapse sourceNeuronName = "6" targetNeuronName = "13" weight = "-0.9543249489103562" />
    <synapse sourceNeuronName = "6" targetNeuronName = "14" weight = "0.12067010785046883" />
    <synapse sourceNeuronName = "6" targetNeuronName = "15" weight = "-0.9714854105602093" />
    <synapse sourceNeuronName = "6" targetNeuronName = "16" weight = "-0.07263549608251574" />
    <synapse sourceNeuronName = "6" targetNeuronName = "17" weight = "-1.8488411677914272" />
    <synapse sourceNeuronName = "6" targetNeuronName = "18" weight = "-0.8791694711596476" />
    <synapse sourceNeuronName = "6" targetNeuronName = "19" weight = "-0.903891053697566" />
    <synapse sourceNeuronName = "6" targetNeuronName = "20" weight = "-1.5671309362898538" />
    <synapse sourceNeuronName = "6" targetNeuronName = "21" weight = "-0.8360897390835107" />
    <synapse sourceNeuronName = "6" targetNeuronName = "22" weight = "-1.0799483136967574" />
    <synapse sourceNeuronName = "6" targetNeuronName = "23" weight = "-1.043324530309957" />
    <synapse sourceNeuronName = "7" targetNeuronName = "8" weight = "-1.9309401707881053" />
    <synapse sourceNeuronName = "7" targetNeuronName = "9" weight = "-0.11979607059152197" />
    <synapse sourceNeuronName = "7" targetNeuronName = "10" weight = "-0.6543187690958634" />
    <synapse sourceNeuronName = "7" targetNeuronName = "11" weight = "-0.8289614317477816" />
    <synapse sourceNeuronName = "7" targetNeuronName = "12" weight = "-1.6570920379392264" />
    <synapse sourceNeuronName = "7" targetNeuronName = "13" weight = "-1.0136180847040361" />
    <synapse sourceNeuronName = "7" targetNeuronName = "14" weight = "-1.8512181457935362" />
    <synapse sourceNeuronName = "7" targetNeuronName = "15" weight = "-0.0764975977091924" />
    <synapse sourceNeuronName = "7" targetNeuronName = "16" weight = "-1.883189023466678" />
    <synapse sourceNeuronName = "7" targetNeuronName = "17" weight = "-0.23018341381075946" />
    <synapse sourceNeuronName = "7" targetNeuronName = "18" weight = "-1.2411730198151543" />
    <synapse sourceNeuronName = "7" targetNeuronName = "19" weight = "-1.8471596755425708" />
    <synapse sourceNeuronName = "7" targetNeuronName = "20" weight = "-0.038178164727409536" />
    <synapse sourceNeuronName = "7" targetNeuronName = "21" weight = "-0.3491590510748792" />
    <synapse sourceNeuronName = "7" targetNeuronName = "22" weight = "-0.35584668623595217" />
    <synapse sourceNeuronName = "7" targetNeuronName = "23" weight = "-0.022908007145151288" />
</neuralNetwork>