<neuralNetwork>
    <neuron name = "0" type = "sensor" linkName = "Part0" />
    <neuron name = "1" type = "sensor" linkName = "Part1" />
    <neuron name = "2" type = "sensor" linkName = "Part3" />
    <neuron name = "3" type = "sensor" linkName = "Part5" />
    <neuron name = "4" type = "sensor" linkName = "Part6" />
    <neuron name = "5" type = "sensor" linkName = "Part12" />
    <neuron name = "6" type = "sensor" linkName = "Part15" />
    <neuron name = "7" type = "sensor" linkName = "Part18" />
    <neuron name = "8" type = "sensor" linkName = "Part19" />
    <neuron name = "9" type = "sensor" linkName = "Part22" />
    <neuron name = "10" type = "motor"  jointName = "Part0_Part1" />
    <neuron name = "11" type = "motor"  jointName = "Part1_Part2" />
    <neuron name = "12" type = "motor"  jointName = "Part1_Part3" />
    <neuron name = "13" type = "motor"  jointName = "Part1_Part4" />
    <neuron name = "14" type = "motor"  jointName = "Part4_Part5" />
    <neuron name = "15" type = "motor"  jointName = "Part4_Part6" />
    <neuron name = "16" type = "motor"  jointName = "Part1_Part7" />
    <neuron name = "17" type = "motor"  jointName = "Part6_Part8" />
    <neuron name = "18" type = "motor"  jointName = "Part3_Part9" />
    <neuron name = "19" type = "motor"  jointName = "Part7_Part10" />
    <neuron name = "20" type = "motor"  jointName = "Part2_Part11" />
    <neuron name = "21" type = "motor"  jointName = "Part8_Part12" />
    <neuron name = "22" type = "motor"  jointName = "Part11_Part13" />
    <neuron name = "23" type = "motor"  jointName = "Part2_Part14" />
    <neuron name = "24" type = "motor"  jointName = "Part7_Part15" />
    <neuron name = "25" type = "motor"  jointName = "Part4_Part16" />
    <neuron name = "26" type = "motor"  jointName = "Part9_Part17" />
    <neuron name = "27" type = "motor"  jointName = "Part12_Part18" />
    <neuron name = "28" type = "motor"  jointName = "Part12_Part19" />
    <neuron name = "29" type = "motor"  jointName = "Part5_Part20" />
    <neuron name = "30" type = "motor"  jointName = "Part15_Part21" />
    <neuron name = "31" type = "motor"  jointName = "Part1_Part22" />
    <synapse sourceNeuronName = "0" targetNeuronName = "10" weight = "-0.24539760906523211" />
    <synapse sourceNeuronName = "0" targetNeuronName = "11" weight = "-1.9240905695205468" />
    <synapse sourceNeuronName = "0" targetNeuronName = "12" weight = "-1.2409936689572905" />
    <synapse sourceNeuronName = "0" targetNeuronName = "13" weight = "-0.5784248407201333" />
    <synapse sourceNeuronName = "0" targetNeuronName = "14" weight = "-0.13977280668929026" />
    <synapse sourceNeuronName = "0" targetNeuronName = "15" weight = "-0.6213022574880378" />
    <synapse sourceNeuronName = "0" targetNeuronName = "16" weight = "-1.3037710278876498" />
    <synapse sourceNeuronName = "0" targetNeuronName = "17" weight = "-0.5186744841296471" />
    <synapse sourceNeuronName = "0" targetNeuronName = "18" weight = "-1.375173958399422" />
    <synapse sourceNeuronName = "0" targetNeuronName = "19" weight = "-0.41002190484407564" />
    <synapse sourceNeuronName = "0" targetNeuronName = "20" weight = "-0.7123974358278324" />
    <synapse sourceNeuronName = "0" targetNeuronName = "21" weight = "-1.8344510981888493" />
    <synapse sourceNeuronName = "0" targetNeuronName = "22" weight = "-0.2338546947559108" />
    <synapse sourceNeuronName = "0" targetNeuronName = "23" weight = "-1.8490771116518963" />
    <synapse sourceNeuronName = "0" targetNeuronName = "24" weight = "-0.616916565920568" />
    <synapse sourceNeuronName = "0" targetNeuronName = "25" weight = "-0.8788381836032002" />
    <synapse sourceNeuronName = "0" targetNeuronName = "26" weight = "-1.8656080321019715" />
    <synapse sourceNeuronName = "0" targetNeuronName = "27" weight = "-0.8180392792057469" />
    <synapse sourceNeuronName = "0" targetNeuronName = "28" weight = "-0.20197825137413572" />
    <synapse sourceNeuronName = "0" targetNeuronName = "29" weight = "-1.3985448595474261" />
    <synapse sourceNeuronName = "0" targetNeuronName = "30" weight = "-0.3470258667268282" />
    <synapse sourceNeuronName = "0" targetNeuronName = "31" weight = "-1.4484386212903546" />
    <synapse sourceNeuronName = "1" targetNeuronName = "10" weight = "-0.49124480723267117" />
    <synapse sourceNeuronName = "1" targetNeuronName = "11" weight = "-0.6841128921245929" />
    <synapse sourceNeuronName = "1" targetNeuronName = "12" weight = "-1.2162756285272989" />
    <synapse sourceNeuronName = "1" targetNeuronName = "13" weight = "-1.1066722806439553" />
    <synapse sourceNeuronName = "1" targetNeuronName = "14" weight = "-0.8776238297577839" />
    <synapse sourceNeuronName = "1" targetNeuronName = "15" weight = "-0.6803646235810703" />
    <synapse sourceNeuronName = "1" targetNeuronName = "16" weight = "-0.7172165754031883" />
    <synapse sourceNeuronName = "1" targetNeuronName = "17" weight = "-1.4858442693816067" />
    <synapse sourceNeuronName = "1" targetNeuronName = "18" weight = "-1.9238340019569262" />
    <synapse sourceNeuronName = "1" targetNeuronName = "19" weight = "-1.7135210957713018" />
    <synapse sourceNeuronName = "1" targetNeuronName = "20" weight = "-0.7362990312088109" />
    <synapse sourceNeuronName = "1" targetNeuronName = "21" weight = "-1.1613868489737726" />
    <synapse sourceNeuronName = "1" targetNeuronName = "22" weight = "-0.460982616760758" />
    <synapse sourceNeuronName = "1" targetNeuronName = "23" weight = "-1.7862821372292141" />
    <synapse sourceNeuronName = "1" targetNeuronName = "24" weight = "-1.4584823950651504" />
    <synapse sourceNeuronName = "1" targetNeuronName = "25" weight = "-1.2082187670428663" />
    <synapse sourceNeuronName = "1" targetNeuronName = "26" weight = "-0.30035835686770684" />
    <synapse sourceNeuronName = "1" targetNeuronName = "27" weight = "-0.12436364230116315" />
    <synapse sourceNeuronName = "1" targetNeuronName = "28" weight = "-0.8132190399120593" />
    <synapse sourceNeuronName = "1" targetNeuronName = "29" weight = "-0.9760065751743356" />
    <synapse sourceNeuronName = "1" targetNeuronName = "30" weight = "-0.22116556102046903" />
    <synapse sourceNeuronName = "1" targetNeuronName = "31" weight = "-0.5695004026032637" />
    <synapse sourceNeuronName = "2" targetNeuronName = "10" weight = "-0.9166429804462599" />
    <synapse sourceNeuronName = "2" targetNeuronName = "11" weight = "-0.22922333845839704" />
    <synapse sourceNeuronName = "2" targetNeuronName = "12" weight = "-0.224467119437747" />
    <synapse sourceNeuronName = "2" targetNeuronName = "13" weight = "-1.3389601385984211" />
    <synapse sourceNeuronName = "2" targetNeuronName = "14" weight = "-1.1484383899146728" />
    <synapse sourceNeuronName = "2" targetNeuronName = "15" weight = "-0.9260387845577447" />
    <synapse sourceNeuronName = "2" targetNeuronName = "16" weight = "-0.6720731015233099" />
    <synapse sourceNeuronName = "2" targetNeuronName = "17" weight = "-0.7578422352977638" />
    <synapse sourceNeuronName = "2" targetNeuronName = "18" weight = "-1.1756016973329357" />
    <synapse sourceNeuronName = "2" targetNeuronName = "19" weight = "-0.2407612987623271" />
    <synapse sourceNeuronName = "2" targetNeuronName = "20" weight = "-0.48197255886408175" />
    <synapse sourceNeuronName = "2" targetNeuronName = "21" weight = "-0.8813913162967801" />
    <synapse sourceNeuronName = "2" targetNeuronName = "22" weight = "-1.2726313421057813" />
    <synapse sourceNeuronName = "2" targetNeuronName = "23" weight = "-0.49012429825078496" />
    <synapse sourceNeuronName = "2" targetNeuronName = "24" weight = "-0.9787479403517589" />
    <synapse sourceNeuronName = "2" targetNeuronName = "25" weight = "-1.6807826889542505" />
    <synapse sourceNeuronName = "2" targetNeuronName = "26" weight = "-0.6787384599276522" />
    <synapse sourceNeuronName = "2" targetNeuronName = "27" weight = "-0.6688336583698615" />
    <synapse sourceNeuronName = "2" targetNeuronName = "28" weight = "-0.88300589170593" />
    <synapse sourceNeuronName = "2" targetNeuronName = "29" weight = "-1.7968845236800959" />
    <synapse sourceNeuronName = "2" targetNeuronName = "30" weight = "-0.04527832625236505" />
    <synapse sourceNeuronName = "2" targetNeuronName = "31" weight = "-1.5058734447727695" />
    <synapse sourceNeuronName = "3" targetNeuronName = "10" weight = "-0.5133371286695969" />
    <synapse sourceNeuronName = "3" targetNeuronName = "11" weight = "-0.45390516705180994" />
    <synapse sourceNeuronName = "3" targetNeuronName = "12" weight = "-0.28447916637461557" />
    <synapse sourceNeuronName = "3" targetNeuronName = "13" weight = "-0.7289696411367736" />
    <synapse sourceNeuronName = "3" targetNeuronName = "14" weight = "-1.6145822323484715" />
    <synapse sourceNeuronName = "3" targetNeuronName = "15" weight = "-0.367249874222755" />
    <synapse sourceNeuronName = "3" targetNeuronName = "16" weight = "-0.5226508337899867" />
    <synapse sourceNeuronName = "3" targetNeuronName = "17" weight = "-0.9757480669924881" />
    <synapse sourceNeuronName = "3" targetNeuronName = "18" weight = "-1.059377107679984" />
    <synapse sourceNeuronName = "3" targetNeuronName = "19" weight = "-1.6317782178264364" />
    <synapse sourceNeuronName = "3" targetNeuronName = "20" weight = "0.2021676112028099" />
    <synapse sourceNeuronName = "3" targetNeuronName = "21" weight = "-1.8789709609531249" />
    <synapse sourceNeuronName = "3" targetNeuronName = "22" weight = "-1.6992256799775471" />
    <synapse sourceNeuronName = "3" targetNeuronName = "23" weight = "-0.09889642353135142" />
    <synapse sourceNeuronName = "3" targetNeuronName = "24" weight = "0.582381463761475" />
    <synapse sourceNeuronName = "3" targetNeuronName = "25" weight = "-0.22112330371378608" />
    <synapse sourceNeuronName = "3" targetNeuronName = "26" weight = "-1.6557719174727257" />
    <synapse sourceNeuronName = "3" targetNeuronName = "27" weight = "-1.479788822015856" />
    <synapse sourceNeuronName = "3" targetNeuronName = "28" weight = "-0.10397588228132792" />
    <synapse sourceNeuronName = "3" targetNeuronName = "29" weight = "-0.9818936920197943" />
    <synapse sourceNeuronName = "3" targetNeuronName = "30" weight = "-1.0282333391097815" />
    <synapse sourceNeuronName = "3" targetNeuronName = "31" weight = "-0.5648791252631797" />
    <synapse sourceNeuronName = "4" targetNeuronName = "10" weight = "0.78380310172832" />
    <synapse sourceNeuronName = "4" targetNeuronName = "11" weight = "0.31349903620003716" />
    <synapse sourceNeuronName = "4" targetNeuronName = "12" weight = "0.7647331637941801" />
    <synapse sourceNeuronName = "4" targetNeuronName = "13" weight = "-1.5342839145292357" />
    <synapse sourceNeuronName = "4" targetNeuronName = "14" weight = "-0.055531392050284456" />
    <synapse sourceNeuronName = "4" targetNeuronName = "15" weight = "-1.8294663722992701" />
    <synapse sourceNeuronName = "4" targetNeuronName = "16" weight = "-1.70290682944306" />
    <synapse sourceNeuronName = "4" targetNeuronName = "17" weight = "-0.31011804876284566" />
    <synapse sourceNeuronName = "4" targetNeuronName = "18" weight = "-0.9840879394511832" />
    <synapse sourceNeuronName = "4" targetNeuronName = "19" weight = "-0.8800840258628351" />
    <synapse sourceNeuronName = "4" targetNeuronName = "20" weight = "-0.3715371848844622" />
    <synapse sourceNeuronName = "4" targetNeuronName = "21" weight = "-1.0761999759726002" />
    <synapse sourceNeuronName = "4" targetNeuronName = "22" weight = "-0.022770835394069655" />
    <synapse sourceNeuronName = "4" targetNeuronName = "23" weight = "-0.41085746873598783" />
    <synapse sourceNeuronName = "4" targetNeuronName = "24" weight = "-1.9262792196253857" />
    <synapse sourceNeuronName = "4" targetNeuronName = "25" weight = "-0.7581652018781584" />
    <synapse sourceNeuronName = "4" targetNeuronName = "26" weight = "-0.6940969348394102" />
    <synapse sourceNeuronName = "4" targetNeuronName = "27" weight = "-1.1108540992440743" />
    <synapse sourceNeuronName = "4" targetNeuronName = "28" weight = "-1.5281671557303722" />
    <synapse sourceNeuronName = "4" targetNeuronName = "29" weight = "-1.2717373343343168" />
    <synapse sourceNeuronName = "4" targetNeuronName = "30" weight = "-1.5739583954478333" />
    <synapse sourceNeuronName = "4" targetNeuronName = "31" weight = "-1.497075357185405" />
    <synapse sourceNeuronName = "5" targetNeuronName = "10" weight = "-1.8031225729999185" />
    <synapse sourceNeuronName = "5" targetNeuronName = "11" weight = "-1.1864632156857386" />
    <synapse sourceNeuronName = "5" targetNeuronName = "12" weight = "-0.2698203076022718" />
    <synapse sourceNeuronName = "5" targetNeuronName = "13" weight = "-0.20152198098038898" />
    <synapse sourceNeuronName = "5" targetNeuronName = "14" weight = "-1.2327223400877099" />
    <synapse sourceNeuronName = "5" targetNeuronName = "15" weight = "-0.16922707167844586" />
    <synapse sourceNeuronName = "5" targetNeuronName = "16" weight = "-0.6247564291514074" />
    <synapse sourceNeuronName = "5" targetNeuronName = "17" weight = "-1.9714138368446856" />
    <synapse sourceNeuronName = "5" targetNeuronName = "18" weight = "-0.789634070960608" />
    <synapse sourceNeuronName = "5" targetNeuronName = "19" weight = "-1.7844339927233337" />
    <synapse sourceNeuronName = "5" targetNeuronName = "20" weight = "-0.35667849831035126" />
    <synapse sourceNeuronName = "5" targetNeuronName = "21" weight = "-1.8949839843418566" />
    <synapse sourceNeuronName = "5" targetNeuronName = "22" weight = "-0.09997769839101256" />
    <synapse sourceNeuronName = "5" targetNeuronName = "23" weight = "-1.1085984846181776" />
    <synapse sourceNeuronName = "5" targetNeuronName = "24" weight = "-0.9104347035323528" />
    <synapse sourceNeuronName = "5" targetNeuronName = "25" weight = "-1.1469620195472683" />
    <synapse sourceNeuronName = "5" targetNeuronName = "26" weight = "-0.6503881856956413" />
    <synapse sourceNeuronName = "5" targetNeuronName = "27" weight = "-1.8333789962667921" />
    <synapse sourceNeuronName = "5" targetNeuronName = "28" weight = "-1.474376232965365" />
    <synapse sourceNeuronName = "5" targetNeuronName = "29" weight = "-1.8362628083897805" />
    <synapse sourceNeuronName = "5" targetNeuronName = "30" weight = "-0.33979613030405" />
    <synapse sourceNeuronName = "5" targetNeuronName = "31" weight = "-0.305846959470204" />
    <synapse sourceNeuronName = "6" targetNeuronName = "10" weight = "-1.5075655795626333" />
    <synapse sourceNeuronName = "6" targetNeuronName = "11" weight = "-1.48206351854054" />
    <synapse sourceNeuronName = "6" targetNeuronName = "12" weight = "-0.8778515115360799" />
    <synapse sourceNeuronName = "6" targetNeuronName = "13" weight = "0.6207725172792875" />
    <synapse sourceNeuronName = "6" targetNeuronName = "14" weight = "-1.218377313971332" />
    <synapse sourceNeuronName = "6" targetNeuronName = "15" weight = "-1.9632692551562523" />
    <synapse sourceNeuronName = "6" targetNeuronName = "16" weight = "-1.0300488394051037" />
    <synapse sourceNeuronName = "6" targetNeuronName = "17" weight = "-0.6256126989859223" />
    <synapse sourceNeuronName = "6" targetNeuronName = "18" weight = "-1.5820847569255192" />
    <synapse sourceNeuronName = "6" targetNeuronName = "19" weight = "-1.2604134641426885" />
    <synapse sourceNeuronName = "6" targetNeuronName = "20" weight = "-1.772187415543308" />
    <synapse sourceNeuronName = "6" targetNeuronName = "21" weight = "-1.207704012547901" />
    <synapse sourceNeuronName = "6" targetNeuronName = "22" weight = "-1.3499924202610167" />
    <synapse sourceNeuronName = "6" targetNeuronName = "23" weight = "-1.5693175363751717" />
    <synapse sourceNeuronName = "6" targetNeuronName = "24" weight = "-0.3409181031863773" />
    <synapse sourceNeuronName = "6" targetNeuronName = "25" weight = "-0.30958176735914056" />
    <synapse sourceNeuronName = "6" targetNeuronName = "26" weight = "-0.8378823608729418" />
    <synapse sourceNeuronName = "6" targetNeuronName = "27" weight = "-1.2093349759320287" />
    <synapse sourceNeuronName = "6" targetNeuronName = "28" weight = "-1.192634355517745" />
    <synapse sourceNeuronName = "6" targetNeuronName = "29" weight = "-1.744745508265992" />
    <synapse sourceNeuronName = "6" targetNeuronName = "30" weight = "-1.6836145229784443" />
    <synapse sourceNeuronName = "6" targetNeuronName = "31" weight = "-0.9198027477874615" />
    <synapse sourceNeuronName = "7" targetNeuronName = "10" weight = "-1.2332631984558011" />
    <synapse sourceNeuronName = "7" targetNeuronName = "11" weight = "-1.8151636061190553" />
    <synapse sourceNeuronName = "7" targetNeuronName = "12" weight = "-1.446473245382948" />
    <synapse sourceNeuronName = "7" targetNeuronName = "13" weight = "-0.48587201746601294" />
    <synapse sourceNeuronName = "7" targetNeuronName = "14" weight = "-1.7925753506749367" />
    <synapse sourceNeuronName = "7" targetNeuronName = "15" weight = "-1.810225832072991" />
    <synapse sourceNeuronName = "7" targetNeuronName = "16" weight = "0.6403028706310425" />
    <synapse sourceNeuronName = "7" targetNeuronName = "17" weight = "-0.5356172353361308" />
    <synapse sourceNeuronName = "7" targetNeuronName = "18" weight = "-1.2385672324407355" />
    <synapse sourceNeuronName = "7" targetNeuronName = "19" weight = "-0.6123640227957499" />
    <synapse sourceNeuronName = "7" targetNeuronName = "20" weight = "-1.0395729731941297" />
    <synapse sourceNeuronName = "7" targetNeuronName = "21" weight = "-0.6855466129944763" />
    <synapse sourceNeuronName = "7" targetNeuronName = "22" weight = "-1.5061364211029158" />
    <synapse sourceNeuronName = "7" targetNeuronName = "23" weight = "-1.2075120959289667" />
    <synapse sourceNeuronName = "7" targetNeuronName = "24" weight = "-0.7088453690096115" />
    <synapse sourceNeuronName = "7" targetNeuronName = "25" weight = "-0.902485134589718" />
    <synapse sourceNeuronName = "7" targetNeuronName = "26" weight = "-0.5265540758363048" />
    <synapse sourceNeuronName = "7" targetNeuronName = "27" weight = "-0.6189813279273784" />
    <synapse sourceNeuronName = "7" targetNeuronName = "28" weight = "-1.7490990864860694" />
    <synapse sourceNeuronName = "7" targetNeuronName = "29" weight = "-0.10119535354286491" />
    <synapse sourceNeuronName = "7" targetNeuronName = "30" weight = "-1.3240905503849503" />
    <synapse sourceNeuronName = "7" targetNeuronName = "31" weight = "-1.7815411199451974" />
    <synapse sourceNeuronName = "8" targetNeuronName = "10" weight = "-0.44637187770243036" />
    <synapse sourceNeuronName = "8" targetNeuronName = "11" weight = "-0.974492339453503" />
    <synapse sourceNeuronName = "8" targetNeuronName = "12" weight = "-1.800940032621135" />
    <synapse sourceNeuronName = "8" targetNeuronName = "13" weight = "-1.7742451195066378" />
    <synapse sourceNeuronName = "8" targetNeuronName = "14" weight = "-1.815332263469592" />
    <synapse sourceNeuronName = "8" targetNeuronName = "15" weight = "-1.9266931996014431" />
    <synapse sourceNeuronName = "8" targetNeuronName = "16" weight = "-1.1838871650465077" />
    <synapse sourceNeuronName = "8" targetNeuronName = "17" weight = "-1.031643629255633" />
    <synapse sourceNeuronName = "8" targetNeuronName = "18" weight = "-1.0449062104514366" />
    <synapse sourceNeuronName = "8" targetNeuronName = "19" weight = "-0.13540970410447684" />
    <synapse sourceNeuronName = "8" targetNeuronName = "20" weight = "-1.5605606707091937" />
    <synapse sourceNeuronName = "8" targetNeuronName = "21" weight = "-0.4317456052999775" />
    <synapse sourceNeuronName = "8" targetNeuronName = "22" weight = "-1.4532885743617496" />
    <synapse sourceNeuronName = "8" targetNeuronName = "23" weight = "-1.1148773786421575" />
    <synapse sourceNeuronName = "8" targetNeuronName = "24" weight = "-1.5543986921968767" />
    <synapse sourceNeuronName = "8" targetNeuronName = "25" weight = "-0.6923762812429299" />
    <synapse sourceNeuronName = "8" targetNeuronName = "26" weight = "-0.2292763026965352" />
    <synapse sourceNeuronName = "8" targetNeuronName = "27" weight = "-0.11968225935309018" />
    <synapse sourceNeuronName = "8" targetNeuronName = "28" weight = "-1.695665558071529" />
    <synapse sourceNeuronName = "8" targetNeuronName = "29" weight = "-1.3867539066646222" />
    <synapse sourceNeuronName = "8" targetNeuronName = "30" weight = "-1.8419098798866664" />
    <synapse sourceNeuronName = "8" targetNeuronName = "31" weight = "-0.36795702237083305" />
    <synapse sourceNeuronName = "9" targetNeuronName = "10" weight = "-1.3409427010837274" />
    <synapse sourceNeuronName = "9" targetNeuronName = "11" weight = "-1.9205010247339682" />
    <synapse sourceNeuronName = "9" targetNeuronName = "12" weight = "-1.3512683421335538" />
    <synapse sourceNeuronName = "9" targetNeuronName = "13" weight = "-1.3353123718994049" />
    <synapse sourceNeuronName = "9" targetNeuronName = "14" weight = "-1.4763292749530619" />
    <synapse sourceNeuronName = "9" targetNeuronName = "15" weight = "-1.861835951116448" />
    <synapse sourceNeuronName = "9" targetNeuronName = "16" weight = "-1.9997992801082058" />
    <synapse sourceNeuronName = "9" targetNeuronName = "17" weight = "-1.0875912762725426" />
    <synapse sourceNeuronName = "9" targetNeuronName = "18" weight = "-1.8612291241293064" />
    <synapse sourceNeuronName = "9" targetNeuronName = "19" weight = "-0.8761730119801596" />
    <synapse sourceNeuronName = "9" targetNeuronName = "20" weight = "-1.0222595160106773" />
    <synapse sourceNeuronName = "9" targetNeuronName = "21" weight = "-0.7079246743214902" />
    <synapse sourceNeuronName = "9" targetNeuronName = "22" weight = "-0.1802417540113319" />
    <synapse sourceNeuronName = "9" targetNeuronName = "23" weight = "-0.12597140835661436" />
    <synapse sourceNeuronName = "9" targetNeuronName = "24" weight = "-1.649350129876073" />
    <synapse sourceNeuronName = "9" targetNeuronName = "25" weight = "-0.11103755405596938" />
    <synapse sourceNeuronName = "9" targetNeuronName = "26" weight = "-0.2741461641349632" />
    <synapse sourceNeuronName = "9" targetNeuronName = "27" weight = "-0.22977958331775072" />
    <synapse sourceNeuronName = "9" targetNeuronName = "28" weight = "-1.1946343418609653" />
    <synapse sourceNeuronName = "9" targetNeuronName = "29" weight = "-1.6729793463665907" />
    <synapse sourceNeuronName = "9" targetNeuronName = "30" weight = "-0.9053250021281998" />
    <synapse sourceNeuronName = "9" targetNeuronName = "31" weight = "-0.5455225098630354" />
</neuralNetwork>