<neuralNetwork>
    <neuron name = "0" type = "sensor" linkName = "RightFoot" />
    <neuron name = "1" type = "sensor" linkName = "LeftFoot" />
    <neuron name = "2" type = "sensor" linkName = "LowerRightArm" />
    <neuron name = "3" type = "sensor" linkName = "LowerLeftArm" />
    <neuron name = "4" type = "sensor" linkName = "LowerRightLeg" />
    <neuron name = "5" type = "sensor" linkName = "LowerLeftLeg" />
    <neuron name = "6" type = "motor"  jointName = "Torso_UpperRightLeg" />
    <neuron name = "7" type = "motor"  jointName = "UpperRightLeg_LowerRightLeg" />
    <neuron name = "8" type = "motor"  jointName = "LowerRightLeg_RightFoot" />
    <neuron name = "9" type = "motor"  jointName = "Torso_UpperLeftLeg" />
    <neuron name = "10" type = "motor"  jointName = "UpperLeftLeg_LowerLeftLeg" />
    <neuron name = "11" type = "motor"  jointName = "LowerLeftLeg_LeftFoot" />
    <neuron name = "12" type = "motor"  jointName = "Torso_UpperRightArm" />
    <neuron name = "13" type = "motor"  jointName = "UpperRightArm_LowerRightArm" />
    <neuron name = "14" type = "motor"  jointName = "Torso_UpperLeftArm" />
    <neuron name = "15" type = "motor"  jointName = "UpperLeftArm_LowerLeftArm" />
    <synapse sourceNeuronName = "0" targetNeuronName = "6" weight = "0.0778248287763752" />
    <synapse sourceNeuronName = "0" targetNeuronName = "7" weight = "0.33237485914230036" />
    <synapse sourceNeuronName = "0" targetNeuronName = "8" weight = "-0.8785771011476629" />
    <synapse sourceNeuronName = "0" targetNeuronName = "9" weight = "0.842629290345432" />
    <synapse sourceNeuronName = "0" targetNeuronName = "10" weight = "-0.048441459753837623" />
    <synapse sourceNeuronName = "0" targetNeuronName = "11" weight = "0.5676304141329389" />
    <synapse sourceNeuronName = "0" targetNeuronName = "12" weight = "0.4931318784922387" />
    <synapse sourceNeuronName = "0" targetNeuronName = "13" weight = "-0.967640413762936" />
    <synapse sourceNeuronName = "0" targetNeuronName = "14" weight = "-0.14852686858529962" />
    <synapse sourceNeuronName = "0" targetNeuronName = "15" weight = "0.35130021958161506" />
    <synapse sourceNeuronName = "1" targetNeuronName = "6" weight = "0.038658867897324534" />
    <synapse sourceNeuronName = "1" targetNeuronName = "7" weight = "-0.3904995681526293" />
    <synapse sourceNeuronName = "1" targetNeuronName = "8" weight = "0.4181009305930765" />
    <synapse sourceNeuronName = "1" targetNeuronName = "9" weight = "-0.8497256929979073" />
    <synapse sourceNeuronName = "1" targetNeuronName = "10" weight = "-0.17290843662947664" />
    <synapse sourceNeuronName = "1" targetNeuronName = "11" weight = "-0.4242529105296584" />
    <synapse sourceNeuronName = "1" targetNeuronName = "12" weight = "0.5960146295785278" />
    <synapse sourceNeuronName = "1" targetNeuronName = "13" weight = "-0.6006485195312916" />
    <synapse sourceNeuronName = "1" targetNeuronName = "14" weight = "0.49954755943502605" />
    <synapse sourceNeuronName = "1" targetNeuronName = "15" weight = "-0.5258438412207687" />
    <synapse sourceNeuronName = "2" targetNeuronName = "6" weight = "-0.2094785047854082" />
    <synapse sourceNeuronName = "2" targetNeuronName = "7" weight = "-0.9971834689099484" />
    <synapse sourceNeuronName = "2" targetNeuronName = "8" weight = "0.11704022876219744" />
    <synapse sourceNeuronName = "2" targetNeuronName = "9" weight = "0.748928551249187" />
    <synapse sourceNeuronName = "2" targetNeuronName = "10" weight = "-0.7263501898800357" />
    <synapse sourceNeuronName = "2" targetNeuronName = "11" weight = "-0.5688314702643393" />
    <synapse sourceNeuronName = "2" targetNeuronName = "12" weight = "-0.003537289677441491" />
    <synapse sourceNeuronName = "2" targetNeuronName = "13" weight = "-0.45693769223712377" />
    <synapse sourceNeuronName = "2" targetNeuronName = "14" weight = "0.6123926354621834" />
    <synapse sourceNeuronName = "2" targetNeuronName = "15" weight = "-0.9369253878840471" />
    <synapse sourceNeuronName = "3" targetNeuronName = "6" weight = "0.341136581917993" />
    <synapse sourceNeuronName = "3" targetNeuronName = "7" weight = "0.29210662005316035" />
    <synapse sourceNeuronName = "3" targetNeuronName = "8" weight = "-0.5746363499439304" />
    <synapse sourceNeuronName = "3" targetNeuronName = "9" weight = "-0.1296120841131312" />
    <synapse sourceNeuronName = "3" targetNeuronName = "10" weight = "0.2318646649218712" />
    <synapse sourceNeuronName = "3" targetNeuronName = "11" weight = "0.46708153851189294" />
    <synapse sourceNeuronName = "3" targetNeuronName = "12" weight = "0.0035863230070614094" />
    <synapse sourceNeuronName = "3" targetNeuronName = "13" weight = "0.0012606109108896923" />
    <synapse sourceNeuronName = "3" targetNeuronName = "14" weight = "-0.908935997031961" />
    <synapse sourceNeuronName = "3" targetNeuronName = "15" weight = "-0.763626731558354" />
    <synapse sourceNeuronName = "4" targetNeuronName = "6" weight = "0.40244163762401364" />
    <synapse sourceNeuronName = "4" targetNeuronName = "7" weight = "-0.7711299744743199" />
    <synapse sourceNeuronName = "4" targetNeuronName = "8" weight = "-0.28249587726178294" />
    <synapse sourceNeuronName = "4" targetNeuronName = "9" weight = "-0.8920928107644734" />
    <synapse sourceNeuronName = "4" targetNeuronName = "10" weight = "0.7854587308784466" />
    <synapse sourceNeuronName = "4" targetNeuronName = "11" weight = "0.12536103662304354" />
    <synapse sourceNeuronName = "4" targetNeuronName = "12" weight = "-0.8416635470005485" />
    <synapse sourceNeuronName = "4" targetNeuronName = "13" weight = "0.4592190220119079" />
    <synapse sourceNeuronName = "4" targetNeuronName = "14" weight = "0.9207940547427733" />
    <synapse sourceNeuronName = "4" targetNeuronName = "15" weight = "0.22227015972422093" />
    <synapse sourceNeuronName = "5" targetNeuronName = "6" weight = "0.3140833237607512" />
    <synapse sourceNeuronName = "5" targetNeuronName = "7" weight = "-0.3887380403386227" />
    <synapse sourceNeuronName = "5" targetNeuronName = "8" weight = "0.08766071784176588" />
    <synapse sourceNeuronName = "5" targetNeuronName = "9" weight = "0.31414454441326356" />
    <synapse sourceNeuronName = "5" targetNeuronName = "10" weight = "-0.29408593830676244" />
    <synapse sourceNeuronName = "5" targetNeuronName = "11" weight = "0.48709672753496625" />
    <synapse sourceNeuronName = "5" targetNeuronName = "12" weight = "0.7135361075275395" />
    <synapse sourceNeuronName = "5" targetNeuronName = "13" weight = "-0.6584209220119333" />
    <synapse sourceNeuronName = "5" targetNeuronName = "14" weight = "0.08789017231931884" />
    <synapse sourceNeuronName = "5" targetNeuronName = "15" weight = "-0.13551411630736787" />
</neuralNetwork>