<neuralNetwork>
    <neuron name = "0" type = "sensor" linkName = "RightFoot" />
    <neuron name = "1" type = "sensor" linkName = "LeftFoot" />
    <neuron name = "2" type = "sensor" linkName = "LowerRightArm" />
    <neuron name = "3" type = "sensor" linkName = "LowerLeftArm" />
    <neuron name = "4" type = "sensor" linkName = "LowerRightLeg" />
    <neuron name = "5" type = "sensor" linkName = "LowerLeftLeg" />
    <neuron name = "6" type = "motor"  jointName = "Torso_UpperRightLeg" />
    <neuron name = "7" type = "motor"  jointName = "UpperRightLeg_LowerRightLeg" />
    <neuron name = "8" type = "motor"  jointName = "LowerRightLeg_RightFoot" />
    <neuron name = "9" type = "motor"  jointName = "Torso_UpperLeftLeg" />
    <neuron name = "10" type = "motor"  jointName = "UpperLeftLeg_LowerLeftLeg" />
    <neuron name = "11" type = "motor"  jointName = "LowerLeftLeg_LeftFoot" />
    <neuron name = "12" type = "motor"  jointName = "Torso_UpperRightArm" />
    <neuron name = "13" type = "motor"  jointName = "UpperRightArm_LowerRightArm" />
    <neuron name = "14" type = "motor"  jointName = "Torso_UpperLeftArm" />
    <neuron name = "15" type = "motor"  jointName = "UpperLeftArm_LowerLeftArm" />
    <synapse sourceNeuronName = "0" targetNeuronName = "6" weight = "-0.6280682303067882" />
    <synapse sourceNeuronName = "0" targetNeuronName = "7" weight = "0.09415751262915228" />
    <synapse sourceNeuronName = "0" targetNeuronName = "8" weight = "-0.7933780012760709" />
    <synapse sourceNeuronName = "0" targetNeuronName = "9" weight = "-0.24712402370714126" />
    <synapse sourceNeuronName = "0" targetNeuronName = "10" weight = "0.4358104117563413" />
    <synapse sourceNeuronName = "0" targetNeuronName = "11" weight = "-0.006692239135893452" />
    <synapse sourceNeuronName = "0" targetNeuronName = "12" weight = "0.932651022497093" />
    <synapse sourceNeuronName = "0" targetNeuronName = "13" weight = "0.18440251566244936" />
    <synapse sourceNeuronName = "0" targetNeuronName = "14" weight = "-0.5969033441198932" />
    <synapse sourceNeuronName = "0" targetNeuronName = "15" weight = "0.11518076434684876" />
    <synapse sourceNeuronName = "1" targetNeuronName = "6" weight = "-0.48080487477820366" />
    <synapse sourceNeuronName = "1" targetNeuronName = "7" weight = "-0.9236436481504604" />
    <synapse sourceNeuronName = "1" targetNeuronName = "8" weight = "-0.2837982400312098" />
    <synapse sourceNeuronName = "1" targetNeuronName = "9" weight = "0.6821647708229623" />
    <synapse sourceNeuronName = "1" targetNeuronName = "10" weight = "-0.9452453192404278" />
    <synapse sourceNeuronName = "1" targetNeuronName = "11" weight = "-0.28044007265096127" />
    <synapse sourceNeuronName = "1" targetNeuronName = "12" weight = "0.14006082026233502" />
    <synapse sourceNeuronName = "1" targetNeuronName = "13" weight = "-0.36575711959375234" />
    <synapse sourceNeuronName = "1" targetNeuronName = "14" weight = "-0.13713492744861355" />
    <synapse sourceNeuronName = "1" targetNeuronName = "15" weight = "-0.06212175585306268" />
    <synapse sourceNeuronName = "2" targetNeuronName = "6" weight = "-0.9606491171105669" />
    <synapse sourceNeuronName = "2" targetNeuronName = "7" weight = "-0.9852903704331493" />
    <synapse sourceNeuronName = "2" targetNeuronName = "8" weight = "-0.6517500170068571" />
    <synapse sourceNeuronName = "2" targetNeuronName = "9" weight = "0.24071081011016182" />
    <synapse sourceNeuronName = "2" targetNeuronName = "10" weight = "-0.6505751474482209" />
    <synapse sourceNeuronName = "2" targetNeuronName = "11" weight = "-0.3686330440496286" />
    <synapse sourceNeuronName = "2" targetNeuronName = "12" weight = "-0.15432603642126885" />
    <synapse sourceNeuronName = "2" targetNeuronName = "13" weight = "0.8908473067146245" />
    <synapse sourceNeuronName = "2" targetNeuronName = "14" weight = "0.6649592954794232" />
    <synapse sourceNeuronName = "2" targetNeuronName = "15" weight = "0.1977960333480735" />
    <synapse sourceNeuronName = "3" targetNeuronName = "6" weight = "-0.5836754502301156" />
    <synapse sourceNeuronName = "3" targetNeuronName = "7" weight = "0.5258192933759762" />
    <synapse sourceNeuronName = "3" targetNeuronName = "8" weight = "0.14104774648396057" />
    <synapse sourceNeuronName = "3" targetNeuronName = "9" weight = "-0.47900782687500354" />
    <synapse sourceNeuronName = "3" targetNeuronName = "10" weight = "0.5789857397802247" />
    <synapse sourceNeuronName = "3" targetNeuronName = "11" weight = "0.5557545698197899" />
    <synapse sourceNeuronName = "3" targetNeuronName = "12" weight = "-0.9736989738556552" />
    <synapse sourceNeuronName = "3" targetNeuronName = "13" weight = "0.7090956771046779" />
    <synapse sourceNeuronName = "3" targetNeuronName = "14" weight = "-0.9777760091608918" />
    <synapse sourceNeuronName = "3" targetNeuronName = "15" weight = "-0.5021707677840925" />
    <synapse sourceNeuronName = "4" targetNeuronName = "6" weight = "0.4867854704626784" />
    <synapse sourceNeuronName = "4" targetNeuronName = "7" weight = "0.35790927829436137" />
    <synapse sourceNeuronName = "4" targetNeuronName = "8" weight = "0.06507222565425108" />
    <synapse sourceNeuronName = "4" targetNeuronName = "9" weight = "-0.6295585597986553" />
    <synapse sourceNeuronName = "4" targetNeuronName = "10" weight = "0.32540252811530723" />
    <synapse sourceNeuronName = "4" targetNeuronName = "11" weight = "-0.604115268867504" />
    <synapse sourceNeuronName = "4" targetNeuronName = "12" weight = "0.28278975560056585" />
    <synapse sourceNeuronName = "4" targetNeuronName = "13" weight = "0.9705304483257173" />
    <synapse sourceNeuronName = "4" targetNeuronName = "14" weight = "-0.22412071822698643" />
    <synapse sourceNeuronName = "4" targetNeuronName = "15" weight = "0.11581215405860878" />
    <synapse sourceNeuronName = "5" targetNeuronName = "6" weight = "0.14116643672691076" />
    <synapse sourceNeuronName = "5" targetNeuronName = "7" weight = "-0.7284069714591437" />
    <synapse sourceNeuronName = "5" targetNeuronName = "8" weight = "-0.6882705819697401" />
    <synapse sourceNeuronName = "5" targetNeuronName = "9" weight = "0.7183945797214903" />
    <synapse sourceNeuronName = "5" targetNeuronName = "10" weight = "0.024180700423940715" />
    <synapse sourceNeuronName = "5" targetNeuronName = "11" weight = "-0.7716222074544294" />
    <synapse sourceNeuronName = "5" targetNeuronName = "12" weight = "0.5076225105647898" />
    <synapse sourceNeuronName = "5" targetNeuronName = "13" weight = "-0.40488599310627005" />
    <synapse sourceNeuronName = "5" targetNeuronName = "14" weight = "0.09487406951358435" />
    <synapse sourceNeuronName = "5" targetNeuronName = "15" weight = "0.6429667242585169" />
</neuralNetwork>